tree
version=v4
num_class=1
num_tree_per_iteration=1
label_index=0
max_feature_idx=14
objective=binary sigmoid:1
feature_names=distance_m surface_enc condition_enc weather_enc weight_carried horse_weight_kg horse_avg_order_3 horse_avg_order_5 horse_avg_last3f_3 horse_avg_last3f_5 horse_win_rate_dist horse_win_rate_venue horse_win_rate_surface jockey_win_rate_100 jockey_win_rate_venue
feature_infos=[1000:4250] [0:2] [0:3] [0:3] [48:64] [336:634] [1:18] [1:18] [12.949999999999999:55.100000000000001] [13:55.100000000000001] [0:1] [0:1] [0:1] [0:1] [0:1]
tree_sizes=6783 6907 6888 6913 6927 6942 6958 6922 6965 6944 6992 6961 6945 6982 7000 6913 6988 6948 6955 6933 7018 6965 7004 6964 7010 6966 6926 7024 6972 7005 6950 7016 7001 7000 6999 6988 6976 7003 7012 6986 6939 6985 6871 6995 6972 6978 6952 6917 6988 6988 6998 6875 6979 6927 6978 6965 6975 6934 6926 6927 7008 6962 6944 6942 7002 6982 6916 6905 6955 6942 6861 6989 6877 6930 6925 6940 6825 6984 6961 6938 6908 6989 6961 6997 7011 6920 6925 6933 6976 6885 6923 6963 6953 6914 6869 6924 6902 6871 6892 6897 6936 6863 6873 6969 6861 6938 6920 6862 6938 6917 6950 6859

Tree=0
num_leaves=63
num_cat=0
split_feature=6 13 14 6 13 6 12 13 6 14 6 6 14 6 6 12 13 14 12 1 14 6 13 14 13 14 12 5 13 12 14 4 10 12 6 6 14 6 5 13 5 13 14 14 6 5 5 14 13 10 12 10 5 10 12 6 5 4 5 6 6 14
split_gain=6961.69 1596.52 1369.53 860.682 457.803 358.422 406.588 259.061 243.623 237.41 167.35 157.585 149.651 112.233 110.503 94.6134 84.6333 72.7161 70.1887 68.1249 58.2717 57.4782 54.5806 48.8898 48.5986 44.277 41.5461 38.8523 38.0646 35.4264 35.01 34.5225 34.3373 33.2878 60.0142 32.887 29.4628 29.6166 26.5392 26.2694 26.2497 25.9882 24.7645 24.6599 24.3757 24.3451 23.3273 28.7863 22.5923 22.4958 20.9005 29.1745 20.4743 20.5434 20.2451 26.0643 20.106 20.1059 19.7425 19.4337 19.3002 18.3757
threshold=4.8333333333333348 0.11055555555555556 0.14584620931190767 7.416666666666667 0.20101010101010103 3.8333333333333335 0.025320512820512803 0.24283374283374284 7.166666666666667 0.06493879683534852 2.8333333333333335 2.5833333333333335 0.086339501999887311 9.8333333333333339 6.5833333333333348 0.45804195804195807 0.099450549450549472 0.12729377104377101 0.033908045977011456 1.0000000180025095e-35 0.11429818000498626 4.416666666666667 0.16754385964912277 0.075476748414205472 0.089087301587301507 0.06780113476974306 0.049390243902439006 453.00000000000006 0.10050505050505051 0.38278388278388281 0.071112200969974365 54.250000000000007 0.63068181818181823 0.039607843137254913 3.166666666666667 6.416666666666667 0.10411466665006812 8.1666666666666696 471.00000000000006 0.23038461538461538 497.00000000000006 0.061381475667189905 0.048080841326562561 0.047631938536107407 3.166666666666667 503.00000000000006 467.00000000000006 0.060274758976455955 0.21026315789473682 0.73214285714285732 0.19139194139194138 0.078461538461538458 503.00000000000006 0.16954022988505749 0.033908045977011456 4.416666666666667 447.00000000000006 59.500000000000007 459.00000000000006 7.416666666666667 9.5833333333333339 0.2118435334390916
decision_type=8 10 10 10 10 10 8 10 10 10 10 10 10 10 8 8 8 10 10 10 10 10 10 8 10 10 10 2 10 10 10 2 10 10 10 8 10 10 2 10 2 8 8 10 10 2 2 8 10 10 8 8 2 8 10 10 2 2 2 10 10 10
left_child=2 3 5 9 8 6 10 11 17 14 19 18 24 25 -2 36 30 46 52 23 35 33 -20 -1 40 -5 44 -12 -21 57 -7 -24 -28 34 -9 -11 -6 -38 48 -17 -8 -29 -15 56 -13 -26 -3 -48 -14 61 51 -40 53 -4 55 -18 -16 60 -32 -41 -10 -19
right_child=1 4 7 13 15 16 12 21 29 20 27 26 38 42 43 39 54 49 22 28 -22 -23 31 -25 45 -27 32 41 -30 -31 58 -33 -34 -35 -36 -37 37 -39 50 59 -42 -43 -44 -45 -46 -47 47 -49 -50 -51 -52 -53 -54 -55 -56 -57 -58 -59 -60 -61 -62 -63
leaf_value=-2.4943579592513099 -2.565042075438114 -2.5506469990659242 -2.3654340326416188 -2.5912108943843917 -2.5812675156130949 -2.5501791903718698 -2.5417819671530881 -2.3093610382945911 -2.5644097373420078 -2.5509221641811632 -2.5145118170450296 -2.4322078122504664 -2.5137881350997855 -2.6040837427721595 -2.5951714447308252 -2.4708586001750237 -2.4895607725352762 -2.518074100081237 -2.4722097110415562 -2.4317820204744569 -2.5362375809088968 -2.5011042122747904 -2.3605026474835173 -2.4361466207628175 -2.5191004036594671 -2.5781512358073457 -2.4984522798961151 -2.4981919990528221 -2.3659437889679014 -2.4947024668430844 -2.5494084741074965 -2.4349484841902087 -2.4294651794776714 -2.4016870604355631 -2.413607469275854 -2.5645716822927982 -2.482530997984072 -2.5410504988156584 -2.4680569243787209 -2.4144110271771666 -2.5199878264341979 -2.4696416413295834 -2.5955338319744339 -2.5745174069174581 -2.4724989826265702 -2.4798094501659338 -2.5648170060596365 -2.5249307550334588 -2.3904685534893861 -2.4238653418631735 -2.4790352343122972 -2.5310173830884204 -2.3058650557803619 -2.4379123829338156 -2.5267454290374238 -2.5334903912461972 -2.5825326763580727 -2.5316725224072085 -2.5230155230507685 -2.5338672563932163 -2.5831455660134521 -2.4877439595244231
leaf_weight=76.710342615842819 1479.6424520909786 258.28038835525513 29.283339485526085 2255.4841868430376 9.9389922171831113 722.41131350398064 592.20384499430656 33.419027522206306 349.66575303673744 806.25905321538448 142.2143047451973 54.631104871630669 189.44119393825531 2006.875972121954 441.31793630123138 42.357450053095818 113.66471636295319 354.80201075971127 78.844891279935837 95.521052718162537 356.06939902901649 11.606608361005781 22.946398138999939 69.773059457540512 219.05805665254593 915.45455831289291 213.12134318053722 153.42068523168564 29.750272005796432 16.075819626450539 101.0575383156538 54.631104871630669 19.877984434366226 108.9286865144968 25.080946803092957 974.62157909572124 122.53643424808979 26.615153655409813 28.34947444498539 69.172717645764351 181.03640857338905 172.83173714578152 1489.8482628911734 654.57268877327442 132.34201717376709 48.627686753869057 52.896784082055092 303.03920565545559 3.7354601621627799 7.0706924498081198 214.32202680408955 53.497125893831253 9.2052411139011365 16.542752146720886 194.77756559848785 48.827800691127777 1123.2395298331976 32.818685710430145 242.13786408305168 3.7354601621627799 227.52954666316509 58.966906845569611
leaf_count=1150 22182 3872 439 33813 149 10830 8878 501 5242 12087 2132 819 2840 30086 6616 635 1704 5319 1182 1432 5338 174 344 1046 3284 13724 3195 2300 446 241 1515 819 298 1633 376 14611 1837 399 425 1037 2714 2591 22335 9813 1984 729 793 4543 56 106 3213 802 138 248 2920 732 16839 492 3630 56 3411 884
internal_value=-2.55852 -2.57545 -2.50425 -2.58199 -2.53319 -2.51717 -2.50483 -2.44539 -2.54308 -2.56797 -2.47441 -2.46049 -2.51956 -2.59426 -2.57563 -2.47336 -2.53685 -2.52819 -2.42523 -2.44316 -2.5547 -2.39224 -2.44256 -2.46653 -2.53029 -2.58744 -2.47828 -2.49256 -2.41597 -2.56769 -2.54392 -2.41264 -2.49249 -2.38476 -2.35365 -2.55839 -2.49848 -2.49292 -2.49675 -2.43882 -2.53667 -2.48303 -2.60044 -2.58269 -2.46064 -2.51192 -2.53918 -2.53087 -2.51129 -2.51217 -2.4873 -2.50907 -2.37638 -2.39117 -2.51579 -2.50271 -2.5861 -2.56964 -2.53077 -2.42042 -2.57181 -2.51372
internal_weight=18942.7 14438.9 4503.83 12503.4 1935.5 3693.37 2270.49 810.461 1661.15 5835.72 740.221 631.426 1530.27 6667.66 3698.77 274.356 1422.88 1035.06 211.454 271.755 2136.95 179.035 156.422 146.483 1040.93 3170.94 419.972 468.467 125.271 626.09 1065.61 77.5775 232.999 167.429 58.5 1780.88 159.091 149.152 489.345 115.266 773.24 326.252 3496.72 2219.13 186.973 267.686 614.216 355.936 193.177 420.84 296.169 81.8466 55.0313 45.8261 357.27 162.493 1564.56 610.014 343.195 72.9082 577.195 413.769
internal_count=283979 216460 67519 187444 29016 55369 34038 12150 24903 87486 11097 9466 22941 99958 55450 4113 21331 15517 3170 4074 32036 2684 2345 2196 15605 47537 6296 7023 1878 9386 15975 1163 3493 2510 877 26698 2385 2236 7336 1728 11592 4891 52421 33268 2803 4013 9208 5336 2896 6309 4440 1227 825 687 5356 2436 23455 9145 5145 1093 8653 6203
is_linear=0
shrinkage=1


Tree=1
num_leaves=63
num_cat=0
split_feature=7 13 13 7 6 6 7 12 13 13 6 7 13 6 13 13 13 13 12 6 13 6 8 12 12 6 12 1 8 8 1 6 7 4 6 8 11 6 13 0 0 1 13 8 10 4 12 0 13 12 10 11 13 10 12 8 13 6 6 7 13 10
split_gain=6189.39 1189.44 1156.01 602.685 521.688 339.401 268.877 268.515 159.733 154.259 120.691 112.185 98.3834 91.1537 90.0325 88.8901 73.643 70.9794 65.5194 62.5535 55.2535 48.914 45.2337 41.2283 37.7987 49.7874 36.2445 34.8339 62.262 37.4097 33.9649 32.3229 30.49 40.5606 29.2438 28.6147 28.0001 26.7706 24.4491 24.1644 27.4668 23.8144 30.0577 26.0546 26.2716 21.978 22.5735 21.9702 24.0354 20.4547 20.3305 20.1166 19.8395 19.7285 19.5881 29.2561 19.4865 19.1038 18.6205 18.5693 18.4648 17.6993
threshold=5.7750000000000012 0.13704850361197113 0.10215677179962891 3.9000000000000004 7.5833333333333348 4.416666666666667 3.4500000000000006 0.034785238959467606 0.22474489795918368 0.2512626262626263 2.8333333333333335 8.9000000000000021 0.070087719298245615 6.416666666666667 0.19211344211344214 0.20626738667975777 0.089087301587301507 0.050568980948727756 1.0000000180025095e-35 9.5833333333333339 0.13704850361197113 4.416666666666667 38.483333333333341 0.061862244897959155 0.024099883855981403 3.166666666666667 0.025320512820512803 1.0000000180025095e-35 36.01666666666668 39.116666666666674 1.0000000180025095e-35 4.5833333333333348 2.291666666666667 52.250000000000007 2.416666666666667 35.341666666666676 0.18898809523809523 4.416666666666667 0.030690737833594904 1250.0000000000002 1650.0000000000002 1.0000000180025095e-35 0.23499399759903963 36.941666666666677 0.070197044334975353 54.250000000000007 0.081356867071152708 1450.0000000000002 0.2512626262626263 0.057983193277310906 0.13423423423423422 0.20526315789473684 0.050252525252525257 0.58571428571428574 1.0000000180025095e-35 13.558333333333335 0.07222705254005711 7.166666666666667 3.416666666666667 4.4500000000000011 0.050568980948727756 0.63068181818181823
decision_type=8 10 10 10 10 10 10 8 10 10 10 10 10 8 10 10 10 10 8 10 10 10 10 10 10 10 10 10 10 10 10 10 10 2 10 10 10 10 8 8 10 8 10 10 10 2 10 10 10 10 8 8 10 10 8 10 10 10 8 10 10 8
left_child=1 3 4 7 13 8 9 10 20 18 27 52 21 31 19 26 39 -15 -3 57 58 -5 34 -11 25 -14 37 28 56 60 -27 54 35 -34 36 -20 -18 51 -13 -9 -41 -35 43 44 49 46 -17 -48 -49 -43 -38 -8 -6 59 55 -2 -1 -7 -4 -28 -29 -47
right_child=2 6 5 12 11 14 15 16 -10 23 -12 38 24 17 -16 45 22 -19 32 -21 -22 -23 -24 -25 -26 30 53 29 -30 -31 -32 -33 33 41 -36 -37 50 -39 -40 40 -42 42 -44 -45 -46 61 47 48 -50 -51 -52 -53 -54 -55 -56 -57 -58 -59 -60 -61 -62 -63
leaf_value=0.083962631254262288 0.15413605023085905 0.12490542659868929 0.093772531069585621 0.018979879315954254 -0.031524404287851131 0.011855765556138405 0.10290280248245852 0.046237925786311307 0.11445466344018569 0.20463999930591037 0.059837225214324732 -0.045818043613461361 0.10287110223348295 -0.025085397624405162 0.040980582110723474 0.087416407326604564 0.057310102734822913 -0.0099646828001552171 0.11956531479925291 -0.022629694779984874 0.054445654815539882 0.0016336299627248989 -0.013659915420313688 0.13924590106178705 0.018195101329032109 0.019013150232035484 0.048753596599094402 0.10661533382251578 0.019759183943290605 0.04548717156373959 0.044339868779944142 -0.0064948055964251022 0.18130572478676069 0.048343482750033535 0.045787409600448803 0.07448821171732338 0.1718428625134073 0.049210319838671579 -0.037778954743712928 0.011662447763101401 0.032618658928865923 0.14767285753140966 0.19626697943547 0.048330482746751773 0.14906093726774639 0.070106554110439478 0.076912950850863346 0.12245424243614683 0.23835244313381546 0.01420872790066563 0.086623808007159298 0.057080454782338669 -0.02215242642733262 0.08257264326536129 0.0025364337363838769 0.02648301636087827 0.12681355003360623 -0.0032627899824870508 0.018015580560353586 0.021937933964006184 0.15220007328153914 0.11335287823097605
leaf_weight=59.614016130566597 4.7053983062505713 134.55123782902956 8.3527081757783872 628.40600097179413 1222.1058309078217 420.67874690890312 62.269050031900406 164.06184057146311 79.236869178712368 36.310299068689346 383.80718401819468 1628.3195693939924 26.301575616002083 1806.6297968700528 132.45022773742676 34.477245479822159 130.04607361555099 1363.4513606131077 84.445250451564789 289.12271551042795 247.84083433449268 1152.2056805863976 23.650489017367363 80.414170004427433 685.95045824348927 251.99885054677725 127.30089432746172 37.788867563009262 27.606483221054077 13.413509219884871 281.6275878995657 1255.9461175054312 7.7576319724321356 100.37020123004913 258.28156867623329 63.190726511180401 8.0889288708567602 110.81255015730858 2307.7862506508827 251.28855790197849 418.48718684911728 4.1115954145789173 5.6868688985705367 38.445144809782505 18.354747943580151 118.87584588676691 7.9064882248640087 10.090958632528784 9.1256842389702779 9.4140992090105993 63.850857682526112 40.791964262723923 1063.2212313488126 24.031096965074539 125.56702810525894 75.054632879793644 51.51409038901329 414.23489121347666 231.23425101488829 133.5170743316412 63.520139396190643 30.619516253471375
leaf_count=834 68 1797 118 9223 18845 6168 866 2408 1056 446 5456 25291 359 27591 1901 473 1855 20642 1158 4422 3578 17305 338 1059 10098 3696 1828 509 383 179 4124 18821 109 1412 3715 870 115 1607 35735 3685 6126 57 77 543 259 1636 109 141 124 133 909 571 16341 337 1845 1090 701 6240 3402 1936 839 420
internal_value=-0.000236112 0.0403786 -0.0203403 0.0292854 -0.0265292 0.0164973 0.0831118 0.0509245 0.0486181 0.108286 0.0775784 -0.0359879 0.0153044 -0.0138213 0.00200442 0.0624138 0.038026 -0.0185841 0.0953528 -0.0025871 0.0378841 0.00775893 0.0535554 0.159789 0.0260829 0.035732 0.0508602 0.10439 0.0872734 0.124951 0.0323948 -0.00348509 0.0833187 0.0695743 0.0570222 0.100369 0.0713338 0.0664574 -0.041107 0.0290022 0.0247666 0.0645319 0.0857505 0.0764766 0.110005 0.0896488 0.115077 0.149604 0.1787 0.0559327 0.0965005 0.0848875 -0.0271676 0.0391126 0.0148946 0.03426 0.103968 0.00434935 0.0207156 0.035059 0.135368 0.0790675
internal_weight=18950.3 6274.38 12675.9 4981.51 10852.8 1823.15 1292.87 1955.02 566.665 583.052 637.264 6221.43 3026.49 4631.35 1256.49 709.818 1317.76 3170.08 466.328 1124.04 487.428 1780.61 483.918 116.724 1245.88 559.928 498.723 253.457 138.735 114.723 533.626 1461.27 331.776 184.14 460.267 147.636 201.986 213.874 3936.11 833.838 669.776 176.383 76.0125 70.3256 31.8804 211.096 61.6004 27.1231 19.2166 13.5257 71.9398 103.061 2285.33 284.849 205.327 79.76 111.128 834.914 239.587 260.818 101.309 149.495
internal_count=283979 90825 193154 72857 166269 26885 17968 28052 8154 7920 8901 96212 44805 70057 18731 10048 19151 48233 6415 16830 7098 26528 6932 1505 18277 8179 7145 3445 1918 1527 7820 21824 4618 2590 6594 2028 2879 3044 61026 12219 9811 2481 1069 992 449 2903 847 374 265 190 1024 1437 35186 4101 3003 1158 1535 12408 3520 3764 1348 2056
is_linear=0
shrinkage=0.05


Tree=2
num_leaves=63
num_cat=0
split_feature=6 13 13 6 6 13 12 6 13 6 6 6 13 13 13 12 12 5 13 6 8 6 12 13 13 5 5 8 5 5 8 6 10 13 8 12 5 5 0 5 0 5 8 5 6 6 12 10 8 8 5 6 12 10 13 10 5 12 5 13 5 12
split_gain=5452.99 1158 899.169 511.395 423.967 318.117 252.697 204.423 181.757 115.642 106.703 102.978 85.4105 76.6116 69.6182 49.9416 45.2356 42.6521 42.4903 42.0142 36.8117 36.2193 34.248 31.4323 31.2745 31.0314 30.3307 29.8786 33.7974 29.0016 28.7356 27.5685 39.1078 27.4743 26.3496 25.9038 25.8992 25.424 24.1403 24.009 23.8 23.6435 22.8372 20.9706 19.9313 19.5376 19.2385 19.1279 18.8123 18.6122 18.5278 18.4218 18.1547 18.0033 21.4166 17.4734 17.3522 17.3383 17.3323 20.0557 25.1416 19.7117
threshold=5.416666666666667 0.10050505050505051 0.1398924731182796 8.5833333333333339 3.8333333333333335 0.20101010101010103 0.025320512820512803 7.5833333333333348 0.24068965517241384 6.8333333333333348 3.166666666666667 2.8333333333333335 0.082903780068728519 0.057831661092530608 0.089087301587301507 0.45804195804195807 0.029857397504456304 465.00000000000006 0.1329931972789116 9.8333333333333339 34.116666666666674 4.166666666666667 0.39009661835748799 0.070087719298245615 0.081799933087989204 497.00000000000006 477.00000000000006 38.483333333333341 509.00000000000006 463.00000000000006 33.583333333333343 4.416666666666667 0.91666666666666685 0.18379075768238332 33.783333333333346 0.39009661835748799 467.00000000000006 439.00000000000006 1350.0000000000002 457.00000000000006 1250.0000000000002 435.00000000000006 13.558333333333335 451.00000000000006 1.1666666666666667 9.8333333333333339 0.072299651567944212 0.032795698924731158 38.041666666666679 35.658333333333346 475.00000000000006 2.166666666666667 0.11952380952380952 0.45804195804195807 0.059612651030561452 0.15075757575757578 455.00000000000006 0.20942982456140347 501.00000000000006 0.26546556122448989 495.00000000000006 0.76388888888888895
decision_type=8 10 8 10 10 10 8 10 10 8 10 10 10 8 10 8 10 2 10 10 10 10 10 10 10 2 2 10 2 2 10 10 10 10 10 10 2 2 8 2 8 2 10 2 10 10 10 10 10 10 2 10 10 10 10 10 2 10 2 10 2 8
left_child=2 3 4 9 6 7 11 18 10 23 16 24 17 36 25 -7 26 -6 -3 52 -20 58 45 -2 41 44 -4 28 51 -23 35 57 -33 39 -13 42 -11 -36 46 -32 47 -1 -18 -15 -8 -9 -14 -19 -41 -46 -31 -16 -5 -49 -55 -43 -21 -12 59 61 -61 -10
right_child=1 5 8 19 12 15 14 22 21 13 31 34 38 43 27 -17 30 40 20 56 -22 29 -24 -25 -26 -27 -28 -29 -30 50 33 32 -34 -35 37 -37 -38 -39 -40 48 -42 55 -44 -45 49 -47 -48 53 -50 -51 -52 -53 -54 54 -56 -57 -58 -59 -60 60 -62 -63
leaf_value=0.030847667164427717 -0.0093693574728322959 0.012344011935448028 0.084806243443392756 -0.033780430096915982 -0.0012137611977341878 0.044106007175414297 -0.0076501720096812794 -0.0078703650457732782 0.11045849490606881 -0.031053474235700613 0.06761165176564006 0.10175727225848033 0.065310891741742969 -0.021361311283430138 0.057505220581684773 0.088108737798283751 -0.0098235180761718603 0.041584934168011345 0.046415891277338056 -0.046187726441294298 0.018876071059785969 0.019438188076642118 0.059710458426046477 0.0055127332073924016 0.11013105097700954 0.039482542689095554 0.12972601028533373 -0.0040294160767207991 0.081516034596465239 0.16252029291658243 0.025827130196079157 0.033430161015377401 0.15712465525779856 0.088967565557813599 0.022235988335323104 0.18581406136897188 -0.020848870846167464 0.054322316368773806 0.024361275025736394 0.071989275169649841 0.010674258732597029 0.085630087377471076 0.14059014962031693 -0.0086467492442843779 0.030359988246495318 -0.024564206041026663 0.026975997244621353 0.0013096606753679977 0.0080228528035619657 0.013792746456071392 0.079263147823819671 0.036225142262913547 -0.019771981844319594 0.0048399162790102946 0.11122190310059535 -0.016726515821763637 -0.038451227032801877 0.042214127414549801 0.092802777333961486 0.13223093207297695 0.21839182043170255 0
leaf_weight=25.068356096744537 1365.5613491088152 674.61384151875973 86.465256482362747 1202.0703129842877 715.1440431624651 128.91360302269459 64.740567415952682 437.64274755120277 46.388616628944874 1277.8556088879704 224.74473799020052 25.513627640902996 73.576617494225502 447.83221946656704 158.98525197803974 131.11433529108763 4.6185483410954493 129.16713929176331 227.96577321738005 1153.6640452481806 261.72210722416639 16.776119783520699 15.725545130670069 478.80987033993006 110.99901978671551 240.19619511067867 69.708761818706989 28.07489550113678 68.695737399160862 8.8802821412682516 47.200770184397697 221.2055144906044 6.5151970610022536 106.027976103127 73.746833100914955 10.293785147368906 1222.8804328218102 404.68854064494371 548.61502119153738 142.96984671801329 837.77161096781492 174.10030975937843 5.2823637127876282 1186.0005932599306 311.39088429510593 293.87014205008745 60.373281061649323 77.715946853160858 12.720722146332262 376.42545332759619 30.892994344234467 292.77406622469425 289.47176997363567 10.11204017698765 8.9810422211885435 4.1577604711055747 2021.2824404165149 98.790790669620037 47.191374719142914 112.12496856600046 9.5842663422226888 4.4803926497697821
leaf_count=326 20694 9882 1052 19059 10572 1759 929 6652 548 20035 2986 342 1044 6894 2146 1648 62 1902 3181 18576 3759 216 227 7146 1339 3393 836 402 925 114 623 3078 85 1348 1016 130 19123 5471 7847 1883 12342 2212 69 18233 4472 4599 870 1145 171 5415 398 4051 4565 149 131 56 32500 1341 553 1293 111 53
internal_value=-0.000259292 -0.0188139 0.0385103 -0.025602 0.0285176 0.0144597 0.0436625 0.00739697 0.0751961 -0.0159185 0.0655667 0.0661249 0.0139964 -0.0205632 0.0317304 0.0663381 0.0826862 0.00822232 0.020497 -0.0380073 0.0317138 0.111264 -0.013008 -0.00550308 0.0886137 0.0238169 0.104958 0.0460366 0.0487472 0.0750956 0.0720735 0.0504744 0.0370585 0.0682189 0.0520733 0.130165 -0.0260664 0.0493926 0.0290342 0.0573128 0.0145703 0.0767941 0.070529 -0.012136 0.0188056 -0.014586 0.0481031 0.028981 0.0668035 0.0213037 0.0983386 0.0437363 -0.0310666 0.0120871 0.0554594 0.0832066 -0.0412653 0.0598875 0.120509 0.127998 0.139231 0.100805
internal_weight=18950.9 12817 6133.88 10645.4 4821.01 2171.57 2359.56 1911.54 1312.86 5978.94 1036.54 818.274 2461.46 4134.57 1541.28 260.028 485.288 1778.89 1164.3 4666.49 489.688 276.319 747.238 1844.37 314.325 992.753 156.174 548.53 520.455 56.5494 329.114 551.256 227.721 308.919 503.949 20.1947 2500.74 478.435 682.565 202.891 1063.75 203.326 9.90091 1633.83 752.557 731.513 133.95 225.976 155.691 687.816 39.7733 451.759 1491.54 96.809 19.0931 178.258 3174.95 323.536 219.77 172.578 121.709 50.869
internal_count=283979 198532 85447 166825 68497 31707 32495 28300 16950 92125 13664 10762 36002 64285 21733 3407 6174 26241 16822 74700 6940 3286 11478 27840 3933 14209 1888 7524 7122 728 4286 7490 3163 4025 6829 261 39158 6487 9761 2677 15669 2594 131 25127 10816 11251 1914 3327 2054 9887 512 6197 23624 1425 280 2268 51076 4327 2558 2005 1404 601
is_linear=0
shrinkage=0.05


Tree=3
num_leaves=63
num_cat=0
split_feature=7 13 14 7 7 14 7 12 7 14 13 7 14 14 13 13 12 7 7 5 7 7 14 7 5 14 10 5 11 7 5 5 10 13 14 10 5 12 5 13 12 7 13 10 12 9 5 13 9 5 11 5 10 13 9 12 5 13 13 7 5 0
split_gain=4926.26 990.422 883.056 436.623 359.561 303.129 183.51 144.431 125.964 120.628 96.3871 85.291 72.8441 60.7599 59.1995 50.0814 48.9235 45.7548 44.5337 42.0613 42.0521 41.9702 39.0988 38.7307 36.052 32.3299 31.4509 31.4454 29.7221 28.279 27.3628 26.5474 25.624 24.6298 23.9 23.8026 23.5358 22.4694 22.2161 21.9904 21.848 24.3786 28.9753 21.4562 20.3848 20.6405 20.2671 19.7105 19.5565 19.2353 18.7819 18.6644 18.4151 18.4239 18.3484 18.3062 18.1123 17.8602 17.7992 18.443 17.7985 17.3024
threshold=5.7750000000000012 0.099450549450549472 0.11115756224451877 8.3666666666666689 3.7750000000000004 0.15687320819469733 2.7083333333333335 0.042109929078014162 6.5500000000000007 0.055360232328225352 0.24068965517241384 7.366666666666668 0.06780113476974306 0.086339501999887311 0.16169043374925726 0.20101010101010103 0.047065337763012159 2.9000000000000004 9.5500000000000025 517.00000000000011 10.100000000000001 6.9000000000000012 0.11828950768191121 3.9000000000000004 453.00000000000006 0.19579366416715813 0.27888888888888896 493.00000000000006 0.39230769230769236 7.366666666666668 457.00000000000006 461.00000000000006 1.0000000180025095e-35 0.14213564213564214 0.076905883566589867 0.34057971014492755 457.00000000000006 0.040408163265306107 475.00000000000006 0.070087719298245615 0.056079664570230552 4.7750000000000012 0.12262799856784816 inf 0.32666666666666672 36.090000000000011 493.00000000000006 0.05235745614035086 38.090000000000011 471.00000000000006 0.2264957264957265 451.00000000000006 0.5634920634920636 0.10327052968361176 37.177500000000009 0.48333333333333339 461.00000000000006 0.28647416413373866 0.019049346879535505 1.7083333333333337 441.00000000000006 1250.0000000000002
decision_type=8 10 10 10 10 8 10 8 10 10 10 10 10 10 10 10 10 10 10 2 10 8 10 10 2 10 10 2 10 10 2 2 8 10 8 8 2 8 2 10 10 10 8 8 8 10 2 8 10 2 8 2 10 10 10 10 2 10 10 10 2 8
left_child=2 3 4 9 7 8 14 17 33 21 16 15 40 27 32 35 23 34 -10 49 47 -2 29 30 -19 57 28 43 -27 51 -8 -23 -4 60 -1 -7 -34 50 -28 -14 41 42 56 54 -17 -46 -24 -5 58 -15 -25 -11 -18 -54 -9 -30 -6 -16 -29 61 -3 -60
right_child=1 5 6 20 12 11 10 13 18 22 -12 -13 39 19 25 44 52 24 -20 -21 -22 31 46 37 -26 26 38 48 55 -31 -32 -33 36 -35 -36 -37 -38 -39 -40 -41 -42 -43 -44 -45 45 -47 -48 -49 -50 -51 -52 -53 53 -55 -56 -57 -58 -59 59 -61 -62 -63
leaf_value=0.065639116504944098 -0.014155394614730614 -0.010450082862125613 0.096858143325910528 -0.036245379281988975 0.0051966034618005502 0.017302960280097566 0.049223228060476479 0.028644421048368219 -0.005228878602777709 -0.015984818108183897 0.085580468218185102 0.010146249085502865 0.013418921644581494 0.028761247279632963 0.078264103280983183 0.049066331308164984 0.036764609259750135 0.025902112417091467 -0.029138143550823826 0.11723629292790093 -0.042707476446630879 -0.033125912831342322 0.0032957177368998303 0.056722799980298277 0.059911580543169224 0.14889805137956574 0.047691625705949696 -0.031828890598966826 -0.012030783897988616 -0.020057539037189057 0.092208296708759616 -0.022147870172110867 0.026213044369881373 0.031368645587957752 0.099229641464343266 0.050251078934723081 0.070545755976531649 0.089421773302217178 0.11368115074779483 0.027144195406776192 0.00056208246875998438 0.0044694189716284211 0.09204490809458582 0.00024949856961334712 0.081510089493939647 0.18484028332857269 0.03949550319568134 -0.025892190365464324 0.0077498374361576281 0.057624242261364825 0.032059661673451138 -0.0040192870690684782 0.013466364837031317 0.078953238353784816 0.0067186599058828957 0.11251946701952287 0.028061758749762519 0.14957072002396687 0.18592434966746135 0.041559737117845934 0.014261529533012858 0.069365889663444147
leaf_weight=147.32688754796982 908.23441308364272 86.270484562963247 66.921189233660698 1395.1428436152637 149.24229460209608 83.876224625855684 54.606902971863747 362.4850380346179 745.46464166045189 442.67726430669427 204.32661923021078 155.04762050509453 483.31636796891689 102.1123168990016 102.77299401909113 55.825271137058735 613.5653854906559 112.42364294081926 263.93307406082749 22.305450156331062 2226.7378476336598 975.80771220847964 162.69322921335697 179.63563219457865 260.24231003969908 83.342926383018494 20.234068103134632 7.0581141561269751 4.7488822862505895 570.25465092808008 122.07673258334398 1278.8344751819968 40.046998284757137 187.70335831493139 85.574496783316135 161.97304955869913 125.53262514621019 33.270999126136303 37.121706515550613 745.2736047655344 920.42447780817747 509.91546385735273 13.880855701863764 133.9515880420804 111.75385535508394 5.1154928579926482 50.784405011683702 694.59818080812693 41.81210932135582 136.76778744906187 138.63375853002071 1242.3358359001577 13.921780385076998 50.720625884830952 130.4737149849534 7.3373527303338051 208.48141854256392 9.8694973513483983 3.6465671062469509 168.26895977556705 459.7528844550252 27.363340444862843
leaf_count=1762 14035 1263 776 22888 2152 1189 667 5046 11228 6867 2296 2282 7033 1376 1176 720 8269 1480 4212 289 37142 15662 2464 2362 3297 875 224 98 54 9001 1457 20292 508 2554 972 2212 1573 447 412 10405 13521 7515 180 1874 1297 63 765 11245 575 1800 1859 19087 191 632 1839 81 2950 102 49 2285 6686 366
internal_value=-0.000276596 -0.0190944 0.0342674 -0.0259512 0.0227691 0.0103468 0.0630119 0.0408727 -2.58927e-05 -0.0167784 0.0537849 0.0418724 0.0123613 0.0303483 0.0891282 0.053608 0.0483891 0.0606035 -0.0114878 0.0515275 -0.0379168 -0.0232444 -0.00849187 0.0598222 0.0496749 0.105325 0.120445 0.0240159 0.138209 -0.010429 0.0789867 -0.0269026 0.0705792 0.015735 0.07804 0.0390421 0.0598759 0.0501562 0.0906118 0.0217504 0.005956 0.0115816 0.0213237 0.0180328 0.0742807 0.0862299 0.0119452 -0.0328079 0.0390976 0.0453245 0.046009 -0.00716653 0.0394695 0.0649694 0.0228539 0.0634742 0.0185405 0.0846833 0.0454189 0.0481945 0.0103468 0.0837867
internal_weight=18945.9 12264.8 6681.03 9948.1 4772.35 2316.72 1908.69 1741.81 1743.12 5631.62 1410.76 573.592 3030.53 1136.24 497.928 418.544 1206.43 605.567 1009.4 261.186 4316.48 3162.88 2468.75 528.224 372.666 265.427 152.785 875.059 95.4292 2255.27 176.684 2254.64 232.501 733.727 232.901 245.849 165.58 351.54 57.3558 1228.59 1801.94 881.52 371.605 626.91 172.695 116.869 213.478 2089.74 248.149 238.88 318.269 1685.01 678.208 64.6424 492.959 12.0862 357.724 112.642 206.337 199.279 546.023 31.0099
internal_count=283979 193154 90825 159448 66864 33706 23961 23108 25943 88173 18180 7763 43756 15597 5781 5481 15884 7511 15440 3465 71275 49989 38184 6792 4777 2924 1646 12132 1010 34955 2124 35954 2857 10503 2734 3401 2081 4668 636 17438 26318 12797 5282 8759 2080 1360 3229 34133 3373 3176 4221 25954 9092 823 6885 135 5102 1278 2798 2700 7949 415
is_linear=0
shrinkage=0.05


Tree=4
num_leaves=63
num_cat=0
split_feature=7 14 14 6 6 6 6 12 14 7 14 14 12 7 14 6 6 14 12 14 7 14 6 8 10 7 14 1 8 14 6 14 8 10 6 14 14 6 8 0 4 14 4 8 4 1 7 8 12 8 7 12 1 6 12 8 6 14 14 7 0 10
split_gain=4400.36 870.473 759.457 407.972 331.774 280.414 155.873 142.115 98.648 97.9386 91.5002 68.381 56.2936 54.0546 48.2528 46.6334 43.4346 41.1074 39.6176 33.8568 33.0431 31.5507 31.2419 29.123 26.383 24.5375 24.3084 24.2338 30.4727 22.1556 22.0672 21.8822 21.5069 21.4585 20.657 20.3002 19.4232 19.3746 19.2131 17.9438 27.2109 17.4383 17.0962 17.5934 16.8827 16.6452 15.8336 16.0242 15.473 14.8428 14.7284 14.3415 16.0203 16.7056 14.2119 14.134 20.172 14.0677 23.9735 17.3489 13.9873 14.7405
threshold=5.9000000000000012 0.097091407162712015 0.11115756224451877 7.5833333333333348 3.8333333333333335 7.166666666666667 3.5833333333333335 0.025320512820512803 0.14584620931190767 9.5500000000000025 0.063068982254264716 0.079862296169890018 0.024099883855981403 9.5500000000000025 0.075007562008469461 2.8333333333333335 6.5833333333333348 0.15388037229674237 0.20942982456140347 0.15388037229674237 4.1000000000000005 0.18491858361333671 2.8333333333333335 39.441666666666677 0.21583850931677012 2.6333333333333337 0.050856078762694608 1.0000000180025095e-35 36.166666666666671 0.075476748414205472 6.8333333333333348 0.16671508812705788 38.283333333333339 inf 6.416666666666667 0.047631938536107407 0.032346908988896063 5.8333333333333348 38.116666666666674 1075.0000000000002 53.500000000000007 0.047606170645651404 55.750000000000007 36.883333333333347 53.500000000000007 1.0000000180025095e-35 2.9000000000000004 37.916666666666679 0.37797619047619052 33.841666666666676 3.7083333333333335 0.028991596638655404 1.0000000180025095e-35 4.416666666666667 0.39009661835748799 33.583333333333343 1.8333333333333337 0.036609870929773157 0.026900347561042402 2.4500000000000006 1350.0000000000002 0.4494949494949495
decision_type=8 10 10 10 10 10 10 8 10 10 10 10 10 10 10 10 8 10 8 10 10 10 8 10 10 10 8 10 10 8 10 10 10 8 10 10 10 10 10 8 2 8 2 10 2 10 10 10 8 10 10 8 10 10 10 10 10 8 10 10 10 8
left_child=2 3 4 10 7 8 12 15 37 26 16 20 23 19 33 27 -2 55 -10 -7 36 34 -12 24 31 38 -5 28 29 -1 -24 49 57 42 -8 -11 -6 -3 -19 40 -28 -18 -9 -44 -16 -20 47 -33 -36 -4 -13 52 53 -22 -47 56 -14 58 -29 -59 61 -38
right_child=1 5 6 9 11 13 21 14 18 35 22 50 17 -15 44 -17 41 25 45 -21 51 -23 30 -25 -26 -27 39 32 -30 -31 -32 46 -34 -35 48 -37 60 -39 -40 -41 -42 -43 43 -45 -46 54 -48 -49 -50 -51 -52 -53 -54 -55 -56 -57 -58 59 -60 -61 -62 -63
leaf_value=0.046088512807115782 -0.0093103850271259985 0.020750021938834309 0.13856365435378001 -0.031921332843298726 -0.0022119530022036305 -0.0094051839979874229 0.039181161134880543 0.015536548388329411 0.023599337708777972 -0.044267837715882878 0.10603373346571757 0.048081766055462889 0.18010730534599212 -0.028409606288770872 0.065218727293135451 0.042113553616062588 -0.025818625947110325 0.08398857161696828 0.061735508202143512 0.017428690752399018 0.027373067392342562 0.055793407815681845 -0.00019677381768852935 0.0019703493005187095 -0.0098875230181556337 0.056622942223118457 0.084109995753424427 0.090235808887870916 0.0045444284753220782 0.087978084311289173 -0.015803702236040877 0.10925706413312859 0.054648580823363296 0.0020242436191024657 0.0008534284605650448 -0.03537047714287217 0.029266794145995936 0.002531384629282376 0.011171016544663884 -0.02365751128143757 -0.011795698617533672 -0.015571438288915128 0.040455398009463239 0.016149822612325507 0.034705507583289087 0.034624396333503518 0.087604830092999714 0.17613535365956146 0.074477111956825631 0.073214681833377357 0.020415819405792311 -0.0022324935713799437 0.013571180763130597 -0.0056612592006999654 0.11235645042253813 0.042276379595929774 0.046549006484454321 0.13048245023863558 -0.02243432913293689 0.081548506684754357 0.017448259989813215 0.081791503838838472
leaf_weight=78.875206664204597 871.1618688814342 394.62554805725813 9.4253133460879308 1500.3327154330909 99.27979864180088 411.2863949611783 639.16431087255478 423.02882628887892 167.21937262266874 1688.0910379961133 6.4439324587583533 52.069922767579556 4.5716587379574758 283.52962182462215 50.853102654218674 469.8669927790761 1380.5246259644628 233.38110125809908 218.44351875782013 164.42762836441398 44.067175097763538 301.92352983355522 1086.538061004132 10.283221289515494 6.6701295971870413 182.07532297074795 9.3510823212563974 18.065043441951278 26.773845076560974 54.132876887917519 286.26518039032817 74.184631377458572 50.640937209129333 162.4079601764679 58.912595022469759 1052.5214680284262 55.006368286907673 232.63474265858531 9.6245180144906026 1271.0692088082433 33.723071556538343 599.06560581177473 191.82879337668419 123.37897375971079 461.77320842444897 118.33020593225956 95.248370744287968 10.834239706397055 8.043898791074751 165.48033995181322 682.23652113601565 1001.2634147368371 408.32272321730852 285.96504418924451 6.1854586973786345 239.19264683127403 7.7876723185181618 37.419314779341221 6.2450885996222487 38.483729146420956 258.19186068326235 17.912967920303345
leaf_count=924 13295 5652 103 25040 1410 6469 8332 5813 2264 29244 86 692 52 4681 673 5886 22434 2514 2709 2422 625 3620 16382 111 73 2112 154 198 325 578 4438 696 552 2242 823 17961 769 3419 106 20712 553 9484 2600 1693 6005 1483 997 100 107 1811 9604 14869 5958 4230 79 2964 96 387 69 414 3636 249
internal_value=-0.000289781 -0.0190727 0.0306387 -0.0252121 0.0202895 0.0110115 0.056286 0.0349661 0.0272975 -0.0341216 -0.0135099 0.00920104 0.0697901 -0.0105423 0.0254988 0.0520969 -0.0186251 0.0611521 0.0436278 -0.00173088 0.00473467 0.042226 -0.00293296 0.0854623 0.08782 0.0706609 -0.0275628 0.0671633 0.0534349 0.063228 -0.00345578 0.0896713 0.0816259 0.0185143 0.0364107 -0.0408541 0.0171386 0.0140026 0.0811309 -0.0225809 0.0090555 -0.0227211 0.0221345 0.0309657 0.0377543 0.0533689 0.102042 0.118035 0.00987074 0.0768419 0.0223907 0.00166219 0.00695003 -0.00122829 0.038613 0.0450423 0.097402 0.0951405 0.0611135 0.105878 0.0229547 0.0423325
internal_weight=18936.7 11781.8 7154.89 9785.09 5098.09 1996.68 2056.8 2193.77 1137.44 5555.09 4230 2904.32 1048.76 859.244 1413.27 780.503 2850.75 676.633 510.179 575.714 2170.01 1008.04 1379.25 372.126 361.843 425.081 2814.48 310.636 159.782 133.008 1372.8 355.173 150.854 900.645 706.121 2740.61 430.391 627.26 243.006 1314.14 43.0742 1979.59 738.237 315.208 512.626 342.959 180.267 85.0189 66.9565 174.906 734.306 1739.62 738.355 330.032 124.516 251.552 12.3593 100.213 24.3101 75.903 331.111 72.9193
internal_count=283979 188961 95018 159783 70401 29178 24617 28359 15606 93664 66119 42042 11735 13572 19026 9333 45213 7844 6535 8891 31746 12882 20906 3891 3780 4732 46459 3447 1827 1502 20820 3707 1620 12348 9262 47205 6064 9071 2620 21419 707 31918 10106 4293 6678 4271 1793 796 930 1914 10296 25682 10813 4855 1562 3112 148 1068 267 801 4654 1018
is_linear=0
shrinkage=0.05


Tree=5
num_leaves=63
num_cat=0
split_feature=7 13 14 7 13 7 7 8 14 12 13 13 7 7 5 7 7 5 5 12 13 1 14 5 12 13 4 14 14 14 9 4 5 7 14 13 5 7 5 4 8 12 8 5 12 4 7 7 0 5 13 1 9 14 5 14 7 12 7 10 8 0
split_gain=4012.85 864.88 634.3 392.011 226.367 207.736 198.458 115.388 87.3053 81.8651 73.3018 65.4902 61.3215 57.2566 44.324 39.8947 38.6067 33.6929 32.165 31.2929 29.8069 29.7166 28.8335 26.4821 25.4584 25.3505 24.5866 24.0445 23.6408 23.1333 23.0235 25.4694 22.7059 21.1819 21.0198 20.7045 19.4291 18.4247 18.1951 20.4113 24.2302 17.9795 17.4746 18.4343 17.3418 17.1455 17.084 16.9827 16.8656 16.7416 16.3025 15.8875 17.2738 18.4051 15.6442 29.7407 24.0181 15.5823 15.5193 15.4162 15.3811 15.168
threshold=5.9000000000000012 0.099450549450549472 0.088894598606828759 8.3666666666666689 0.17010638297872344 3.9000000000000004 3.4500000000000006 32.916666666666679 0.070653453890106258 0.042109929078014162 0.18379075768238332 0.2512626262626263 9.7083333333333339 6.291666666666667 475.00000000000006 11.450000000000001 6.9000000000000012 453.00000000000006 447.00000000000006 0.032795698924731158 0.040202020202020204 1.0000000180025095e-35 0.077998357963875206 443.00000000000006 1.0000000180025095e-35 0.060790835181079056 57.250000000000007 0.030932525351068853 0.11115756224451877 0.095254652626001718 34.790000000000013 52.250000000000007 465.00000000000006 7.291666666666667 0.18491858361333671 0.10050505050505051 465.00000000000006 2.9000000000000004 445.00000000000006 53.500000000000007 35.616666666666674 0.37171052631578955 34.883333333333347 533.00000000000011 0.044949494949494906 60.500000000000007 2.9000000000000004 1.1000000000000003 1350.0000000000002 433.00000000000006 0.20101010101010103 1.0000000180025095e-35 37.110000000000014 0.061406833991726806 499.00000000000006 0.035426504588209611 1.9000000000000001 0.14907407407407408 2.1000000000000005 1.0000000180025095e-35 36.233333333333341 1350.0000000000002
decision_type=8 10 10 10 10 10 10 10 10 8 10 10 10 10 2 10 8 2 2 10 8 10 10 2 8 10 2 10 10 8 10 2 2 10 10 10 2 10 2 2 10 10 10 2 10 2 10 10 8 2 10 10 10 8 2 10 10 10 10 8 10 8
left_child=2 3 5 8 7 9 11 32 16 37 19 14 29 22 30 20 49 -10 -7 21 -5 35 -6 -18 46 -20 -22 -11 -23 41 31 -4 -3 -19 -15 -8 -12 59 -29 40 -40 -9 -26 47 51 54 -16 -44 -34 -2 -24 -27 53 -53 -41 -56 -57 -33 -45 -1 -37 -25
right_child=1 4 6 15 13 18 10 12 17 27 36 -13 -14 34 24 -17 23 33 25 -21 26 28 50 61 42 44 -28 38 -30 -31 -32 57 48 -35 -36 60 -38 -39 39 45 -42 -43 43 58 -46 -47 -48 -49 -50 -51 -52 52 -54 -55 55 56 -58 -59 -60 -61 -62 -63
leaf_value=0.067406910882980869 -0.031400708903549096 0.0087449509543950782 0.15440049330547218 -0.039173913183791487 -0.020284496236537834 -0.0037258126720593463 0.011575700000511452 -0.01054623213771038 -0.018290904946086747 0.0054478593246438684 0.038625447622674225 0.090722494253453689 -0.029878522734861131 0.006312429506508406 0.097560814731063275 -0.044689826882845701 -0.032465661898123305 0.0032903896195273837 0.0057661207992469972 0.023622320446300207 -0.030449146239988002 0.032447925189855731 0.042548465486915897 -0.013219314008788931 0.074252105292011941 0.012187158498486823 -0.0022853481748021779 0.0067882753258951189 0.059518426137912667 0.005852130567343297 0.038624297551099335 0.078373898697366315 0.061169942695306151 -0.012864944730469206 0.038543832420281379 0.047044302160070162 0.063425598079482712 0.038845507161106629 0.084699915176581667 0.019931473450890975 0.030146020395432085 0.043323117824557285 0.0142127679856799 0.15847764891487168 0.010772109957200612 0.1273270187590646 0.06458441113847728 0.053583043070886939 0.025542114311233884 -0.01003059648594265 0.069104151563179603 0.025588244063421452 0.022548349104679906 0.072514148100095488 0.13366407618724652 0.074982859697650131 0.024571488916829583 0.045321541354409162 0.064719546009639722 0.037887445077820811 0.010805191064372636 -0.023058354555863012
leaf_weight=136.43587025254965 101.58793962746859 212.67517863214016 7.0391338914632788 1350.1734118461609 11.837013401091097 499.93569791689515 127.18437757343054 523.91608927026391 387.30701536685228 181.34446353465319 119.34278355538845 163.80295418947935 236.48744573816657 117.3252554051578 91.138511709868908 1190.2387260682881 616.65910225734115 761.83307047560811 1268.0008595138788 800.24048533663154 1423.1165165416896 136.66143506020308 94.947236448526382 519.39468528330326 140.07316432893276 151.84875822067261 82.379788476973772 113.51163849234581 202.4381932169199 516.20340985804796 349.12621397525072 56.449651919305325 38.446986455470324 276.36304122582078 89.491186462342739 125.42627572268248 245.596954010427 371.98766489326954 33.310559973120689 479.98541755229235 53.715972244739532 15.8313155695796 31.435853347182274 7.1393582820892361 520.56597987562418 4.0238511413335791 73.278631485998631 239.08505757153034 257.33733436465263 959.51187686994672 156.35127436369658 39.317994818091393 146.03965517133474 45.979574136435986 7.604624778032302 28.390502415597439 144.45218046754599 102.68586898595095 12.799636989831923 67.627807550132275 38.781206674873829 1635.8365117423236
leaf_count=1438 1613 2975 77 23802 153 7251 1714 8032 6077 2470 1339 1453 3991 1676 854 21402 10359 11630 18516 10553 24589 1797 1197 8571 1568 2102 1410 1534 2460 7571 3931 597 532 4427 1160 1547 2732 4463 442 6437 724 232 352 78 7386 52 770 2771 3566 15159 1678 540 1966 617 99 351 1865 1186 145 726 489 26955
internal_value=-0.000171717 -0.018529 0.0286835 -0.0252811 0.00913422 0.0162737 0.0460402 0.00106636 -0.0162766 0.0303868 0.0353214 0.0611395 -0.00686913 0.0400335 0.0567627 -0.0369823 -0.020206 -0.00570681 0.00770074 0.0302077 -0.0337666 0.038553 0.0555146 -0.0233128 0.0660872 0.0103335 -0.0289116 0.0220403 0.0486362 -0.00170894 0.0459765 0.0613606 0.0212446 -0.0010061 0.0202953 0.0267892 0.0553419 0.0455322 0.025512 0.0283323 0.0511579 -0.0089492 0.059621 0.0525248 0.0167348 0.025328 0.0829422 0.0490334 0.0302091 -0.012084 0.0591115 0.0248172 0.0330771 0.0509975 0.0246798 0.0372644 0.0329194 0.0571194 0.0991634 0.0576718 0.0385279 -0.0206903
internal_weight=18939.1 11575.3 7363.8 9304.4 2270.85 4294.08 3069.73 1800.9 5258.49 1622.39 1795.67 1274.05 1292.44 469.952 1110.25 4045.91 3832.99 1425.5 2671.69 1430.73 2855.67 630.491 263.136 2771.89 594.95 2171.75 1505.5 1046.34 339.1 1055.95 515.301 166.175 508.459 1038.2 206.816 291.392 364.94 576.051 864.995 751.483 87.0265 539.747 430.533 290.46 903.752 664.457 164.417 270.521 295.784 1061.1 251.299 383.186 231.337 85.2976 660.433 180.447 172.843 159.136 19.939 204.064 164.207 2155.23
internal_count=284149 188757 95392 155994 32763 58979 36413 26899 84791 20601 22631 13782 19826 5864 12329 71203 62657 22134 38378 18560 49801 8007 3028 45885 6538 31127 25999 13974 4257 15835 5791 1860 7073 16057 2836 3750 4071 6627 11504 9970 1166 8264 4914 3346 12611 8804 1624 3123 4098 16772 2875 5225 3123 1157 8752 2315 2216 1783 223 2164 2036 35526
is_linear=0
shrinkage=0.05


Tree=6
num_leaves=63
num_cat=0
split_feature=6 6 14 14 6 6 14 14 12 14 12 6 6 14 5 6 14 5 14 1 8 8 6 5 14 5 8 12 8 5 14 5 5 14 0 8 5 10 5 6 8 14 5 1 8 14 4 12 4 12 4 12 6 0 10 6 4 1 8 8 11 5
split_gain=3615.26 854.609 535.045 468.168 136.848 131.26 125.795 116.9 102.613 77.4877 48.5173 46.9262 44.4915 41.3184 36.7351 33.4932 33.0175 31.2734 30.9695 25.4158 36.3868 32.562 25.0987 23.9964 23.5849 22.0111 21.5045 21.323 19.9417 19.5714 19.4707 19.3403 19.2008 19.1306 19.5992 18.5726 18.218 17.8245 17.7035 17.6066 16.9633 16.9109 16.3702 16.1193 15.9117 15.6591 15.6098 15.3699 15.3634 16.9033 15.2815 15.2354 15.0373 14.3367 17.1614 15.7594 29.8002 14.3355 21.8504 14.2835 13.9473 13.7488
threshold=5.5833333333333348 7.8333333333333348 0.10411466665006812 0.088894598606828759 3.8333333333333335 3.416666666666667 0.069842574115376074 0.048401873858436507 0.048199767711962806 0.15687320819469733 1.0000000180025095e-35 9.8333333333333339 10.41666666666667 0.12494931062449312 447.00000000000006 6.8333333333333348 0.16218227155727152 453.00000000000006 0.15388037229674237 1.0000000180025095e-35 36.883333333333347 37.666666666666671 6.5833333333333348 441.00000000000006 0.25020325203252036 447.00000000000006 39.483333333333341 0.17519181585677748 34.941666666666677 437.00000000000006 0.08079511357883426 469.00000000000006 445.00000000000006 0.19579366416715813 1450.0000000000002 38.58333333333335 437.00000000000006 0.63068181818181823 455.00000000000006 4.5833333333333348 39.233333333333341 0.031264374425023007 473.00000000000006 1.0000000180025095e-35 40.058333333333344 0.28103445651408693 59.500000000000007 0.36038961038961043 54.250000000000007 inf 53.500000000000007 0.15894736842105264 6.166666666666667 1250.0000000000002 0.035098522167487656 4.166666666666667 55.750000000000007 1.0000000180025095e-35 36.116666666666681 34.241666666666681 1.0000000180025095e-35 471.00000000000006
decision_type=8 10 10 10 10 10 10 10 8 10 8 10 10 10 2 10 10 2 10 10 10 10 8 2 10 2 10 10 10 2 10 2 2 10 10 10 2 10 2 10 10 10 2 10 10 10 2 10 2 8 2 8 10 8 10 10 2 10 10 10 8 2
left_child=3 2 7 4 8 10 11 14 19 29 17 31 16 23 -2 30 36 -5 -12 20 60 -21 43 -7 59 -6 33 46 42 -4 -9 -3 -10 57 -35 41 -8 39 -32 61 -25 -34 50 -16 -23 -26 -13 -33 -41 -50 -20 -38 -31 54 -27 56 -55 58 -19 -11 -1 -15
right_child=1 6 9 5 25 13 12 15 32 24 18 27 -14 37 22 -17 -18 26 28 21 -22 44 -24 40 45 53 -28 -29 -30 52 38 47 35 34 -36 -37 51 -39 -40 48 -42 -43 -44 -45 -46 -47 -48 -49 49 -51 -52 -53 -54 55 -56 -57 -58 -59 -60 -61 -62 -63
leaf_value=0.04719177331719291 -0.031021833951210245 -0.034705014533848229 -0.008869630658615079 0.045145001533824496 -0.0023226477131807945 -0.0030626916753555018 -0.035628498668812923 -0.0044657844015102317 0.0017237665032999974 0.041756632244278835 0.039125868278085646 -0.042060116712211139 -0.030656999165482614 0.035071662962437737 -0.01877543703730997 -0.013504118341186318 0.010930830609363368 0.066035625402034809 0.11207139873324296 0.067724881184047875 -0.023490020260086706 0.040876874448843102 -0.020146162289555583 0.028760921091468484 0.077644048836430168 0.029063688860309491 0.0067776780284726224 -0.021366440043182514 0.047788526382581353 0.023144033778681048 -0.0070877419613717407 -0.025023649340750694 0.0079449479281051717 0.055037041210731413 0.10820888232913334 -0.0055223283162783576 -0.018106696828428911 0.075463293870380949 0.011788355164123672 0.046357388262021272 -0.010629095594295819 0.025101801062269974 0.081033591123371745 0.00045229023671092207 -0.024007035128569606 0.038649285979392128 -0.010246723097596359 0.025608910746886801 0.020003159653765902 0.087308904559134329 0.045314601191139406 -0.0032875195784783998 0.0076422379840082452 0.0035347234898666126 0.0063782768920126595 0.0055026857268041223 0.03626192378528352 0.081193308696443811 0.010917494658767424 0.024197257102149938 0.026183788768799662 0.053662919284941435
leaf_weight=158.85092478245497 568.62360957637429 863.81584534049034 85.245899684727192 130.55281212180853 394.81179924309254 75.905811756849289 110.14384338259697 1356.6646217107773 159.46149953454733 243.37653706222773 539.13103193044662 2122.4446598403156 563.37653388082981 178.2586997449398 170.43282386660576 760.60357443243265 123.77544311434031 119.6115290671587 9.6817860305309278 161.89455217123032 27.14489071816206 205.1767600774765 1191.6043152846396 544.93487070500851 56.439627096056938 205.83019241318107 11.801971904933451 141.83602951094508 281.15258937329054 370.73302100598812 174.35743369534612 872.60789927840233 175.57341570407152 23.799379110336304 72.611636005342007 64.650594726204872 628.36358489468694 34.939797148108482 429.2188278734684 101.49625124037266 28.535310208797455 815.5077595487237 115.67958731204271 300.73024897649884 9.7434581369161588 49.316390726715326 39.773331537842751 15.076166871935127 220.58728069067001 9.7078003957867605 83.021190591156483 240.83513357490301 272.90574331954122 148.65834702551365 141.2850023843348 1020.4146387279034 131.28608064353466 127.45649198442698 21.474558115005493 226.07183718308806 161.53092385828495 234.74032404273748
leaf_count=1834 9643 15148 1227 1296 5769 1006 1851 21005 2163 2833 6299 39281 9974 2029 2643 12146 1808 1154 95 1790 326 2309 19898 7070 607 2883 121 2553 2853 5041 2631 15127 2375 205 611 883 10452 379 6266 1235 369 10634 1125 4659 109 572 717 249 2694 110 844 3911 3938 2055 2028 14692 1803 1231 218 2901 1829 2642
internal_value=-0.000184678 -0.0168273 -0.00405387 0.0285109 0.0173072 0.0435535 -0.0307922 -0.011558 0.0268198 0.0244377 0.0537072 -0.0355461 -0.0192187 0.0326341 -0.0200413 -0.00459848 -0.0133702 0.066396 0.0474388 0.0417206 0.0319115 0.0507431 -0.0162815 0.0232935 0.0381613 0.00826991 0.0737327 -0.0402428 0.0565738 0.0135969 -0.00113989 -0.0293628 0.017931 0.0758817 0.0952057 0.0203739 -0.0164474 0.0404027 0.00632699 0.0387413 0.0267907 0.0220686 0.0683745 -0.00649481 0.0379023 0.0595608 -0.0414777 -0.0241553 0.0301017 0.0228987 0.0524537 -0.0140072 0.0165812 0.0108114 0.019849 0.00839373 0.0189082 0.0688927 0.0576952 0.0333182 0.036627 0.0456611
internal_weight=18925.3 11978.4 6256.32 6946.9 3981.82 2965.08 5722.05 4952.24 1939.53 1304.09 1535.97 4055.55 1666.49 1429.11 2231.39 2720.84 1103.12 507.308 1028.67 724.342 347.527 376.815 1662.77 649.376 575.204 2042.29 376.756 2304.05 489.535 728.885 1960.24 1751.5 1215.19 364.954 96.411 1055.73 979.343 779.73 603.576 744.79 573.47 991.081 208.383 471.163 214.92 105.756 2162.22 887.684 331.791 230.295 92.703 869.199 643.639 1647.47 347.115 1300.36 279.944 268.543 141.086 469.448 320.382 412.999
internal_count=284149 197081 96010 87068 53482 33586 101071 78891 24252 17119 16052 73075 27996 17534 36843 42048 18022 4836 11216 8197 3989 4208 27200 8445 6913 29230 3540 42551 4917 10206 29902 30524 16055 3419 816 13892 16214 9089 8897 8710 7439 13009 2064 7302 2418 1179 39998 15376 4039 2804 939 14363 8979 23461 4911 18550 3858 2603 1372 5734 3663 4671
is_linear=0
shrinkage=0.05


Tree=7
num_leaves=63
num_cat=0
split_feature=6 13 6 14 14 13 6 14 6 6 12 6 13 12 5 6 14 13 13 6 1 9 5 8 6 5 5 5 5 6 0 12 13 6 5 6 12 12 10 1 12 14 10 12 6 13 13 5 5 8 8 10 9 13 11 1 8 8 6 3 5 5
split_gain=3233.86 825.834 411.297 399.32 194.879 118.503 105.128 104.786 103.014 83.2922 76.7382 57.7093 48.6782 39.3663 38.3183 30.3086 29.5409 29.3025 26.4824 25.3424 24.7366 24.6119 24.4867 25.6315 24.0068 23.4839 22.2105 22.1989 21.8983 21.7053 21.3064 22.0982 21.0546 21.0257 20.0493 19.235 19.1621 18.6511 18.434 17.4127 17.3757 17.1979 16.3982 19.6958 18.4439 16.8166 15.8968 17.5822 15.8968 19.3751 16.3683 15.8842 18.1877 18.2819 19.1286 20.5919 14.8564 14.5822 14.337 14.3037 17.5113 14.2363
threshold=5.5833333333333348 0.099450549450549472 7.8333333333333348 0.079862296169890018 0.15687320819469733 0.18379075768238332 7.166666666666667 0.056703005885373407 3.8333333333333335 3.416666666666667 0.053101503759398455 9.8333333333333339 0.20101010101010103 0.025320512820512803 447.00000000000006 9.4166666666666696 0.047631938536107407 0.15026881720430108 0.27334993773349942 8.5833333333333339 1.0000000180025095e-35 36.090000000000011 461.00000000000006 33.841666666666676 6.416666666666667 441.00000000000006 443.00000000000006 465.00000000000006 489.00000000000006 2.8333333333333335 1350.0000000000002 0.27888888888888896 0.091895378841191616 2.5833333333333335 447.00000000000006 11.16666666666667 0.37171052631578955 0.11952380952380952 0.25543478260869573 1.0000000180025095e-35 0.18019480519480516 0.11064273975036641 0.44097222222222227 0.056079664570230552 5.166666666666667 0.10050505050505051 0.15170694284618338 517.00000000000011 435.00000000000006 37.541666666666679 37.258333333333347 inf 37.370833333333344 0.085236118318629969 0.23303167420814477 1.0000000180025095e-35 37.416666666666679 36.883333333333347 1.5833333333333337 1.0000000180025095e-35 453.00000000000006 513.00000000000011
decision_type=8 10 10 10 8 10 10 10 10 10 8 10 10 10 2 10 10 10 10 10 10 10 2 10 8 2 2 2 2 10 8 8 10 10 2 10 10 8 8 10 8 10 10 10 10 10 10 2 2 10 10 8 10 10 10 10 10 8 10 8 2 2
left_child=3 2 7 8 6 9 17 14 10 13 20 25 35 22 -2 36 -13 27 33 39 21 -1 23 -5 -16 -4 -15 -3 32 -22 -29 -32 -11 58 -10 38 -8 -27 -6 -14 -18 -9 43 44 -30 -45 47 -28 -20 50 -50 52 53 -12 -55 -56 -31 -57 -7 60 -40 -60
right_child=1 4 11 5 12 18 15 41 34 28 51 16 19 26 24 -17 40 -19 48 -21 29 -23 -24 -25 -26 37 46 30 42 56 31 -33 -34 -35 -36 -37 -38 -39 59 -41 -42 -43 -44 45 -46 -47 -48 -49 49 -51 -52 -53 -54 54 55 57 -58 -59 61 -61 -62 -63
leaf_value=0.033941223848234302 -0.029618004841735008 -0.0029950763497599122 -0.039059249678722804 0.12401986173878853 0.010212234101410336 0.040542163406671564 -0.006765863415742087 -0.0054985449968166927 -0.0042358490698484706 0.012261340198619628 0.017410680741084539 -0.042767394646927227 0.064902576426788136 0.010791599447199752 -0.0064063386387532536 -0.024623852086905172 -0.035520514234767611 0.028511002854120726 0.019171756457308984 0.0036092655156595268 0.062328663427007672 0 0.062075883821160742 0.033473325464495406 -0.018956927803790456 -0.028208653718426402 0.032244053992335257 0.035734983492812414 0.049029815277902046 0.054553641921302146 -0.0027120634905861063 0.020913095467343604 0.027117887480269567 0.042339704640274603 0.0089323039194257586 -0.028533174149670139 0.046762104526972666 -0.016962248153829216 -0.0074489840645637247 0.037120769750580491 -0.020618017828728019 0.008335358529690565 0.061103467845229999 0.035627022571668845 0.0046508491868252162 0.0070716085072406931 0.053627346837495406 0.060064827556932703 0.076365219373925416 0.039630017242758733 0.14357339669649735 0.0018442355777151913 0.006392266107895582 0.025682977568930711 0.040257013410759178 0.14505190019667649 0.027041603448822976 0.039931291440392785 0.076748779575612824 0.048366657711841669 0.03227159403245615 0.025356695079932285
leaf_weight=241.67668673396111 640.55993709340692 322.0305109731853 352.63109671324492 8.1996000930666906 157.84544121846557 54.133482806384563 469.15047784522176 1727.637552741915 358.97548600286245 415.45030987262726 468.42795090377331 1545.6535271517932 144.17142370343208 80.115783862769604 529.75955869629979 323.07525655627251 827.24311924353242 201.22921825200319 14.818395406007765 28.25735018402338 128.2897594794631 68.838097244501114 316.04248496890068 155.71747417747974 1370.7535999305546 1259.5528204478323 564.38974712044001 91.007807638496161 160.35007965564728 74.896564118564129 201.25413516908884 194.0190299898386 565.88941749930382 363.55278446525335 1473.3946981541812 18.373333930969238 17.219788353890181 526.00876903906465 35.975039500743151 95.431923240423203 259.32579503580928 257.89350733160973 50.674871392548084 95.224183939397335 27.734150879085064 113.6134841516614 143.92184267193079 63.800504416227341 167.25384591519833 36.294755175709724 9.8360157907009107 188.12793295830488 248.02095894515514 112.19803286343813 31.918631687760353 10.393209941685196 147.45108680427074 5.1725649088621148 126.62716192752123 88.027968723326921 118.03052550181746 15.558453708887098
leaf_count=2686 11116 4623 6383 79 2157 496 7387 27084 5278 5500 6180 29857 1452 937 8262 5615 15511 2591 129 368 1225 818 2985 1580 23269 22419 6505 1261 1944 849 2847 2672 6855 3749 20912 305 238 9116 451 1004 4811 3721 611 1242 359 1397 1506 696 1424 316 86 2509 3307 1383 387 124 1708 63 1106 1097 1464 137
internal_value=-0.000195065 -0.016241 -0.0231066 0.0264505 0.00923711 0.0383175 0.000668895 -0.0123084 0.01461 0.0334295 0.0233785 -0.0333515 0.031942 0.0424298 -0.0190332 -0.0127513 -0.0383138 0.0114343 0.0554303 0.0485973 0.0367615 0.0264312 0.0539097 0.0381061 -0.0154617 -0.0272388 0.035953 0.00717391 0.0250327 0.0458854 0.0139177 0.00887401 0.0208354 0.0495273 0.00634974 0.0212545 -0.00485122 -0.0248995 0.0235612 0.0538783 -0.0319706 -0.00369886 0.0342175 0.0307579 0.0425184 0.0201268 0.0385556 0.0350867 0.0698628 0.073349 0.0802053 0.0150572 0.0178882 0.0224178 0.0370549 0.0637094 0.0363517 0.110917 0.0627838 0.0322384 0.0229618 0.0711822
internal_weight=18909.1 11802.1 9297.02 7106.98 2505.1 3549.2 1818.99 4526.6 3557.78 2761.12 1725.41 4770.42 686.113 1332.19 2541.07 809.446 2632.22 1009.54 788.075 267.861 661.152 310.515 479.96 163.917 1900.51 2138.19 852.228 808.311 1428.94 350.637 486.281 395.273 981.34 559.872 1832.37 418.252 486.37 1785.56 399.879 239.603 1086.57 1985.53 447.597 396.922 188.084 208.838 772.112 628.19 228.203 213.385 177.09 1064.26 876.131 628.11 159.682 47.4844 222.348 15.5658 196.319 242.034 154.006 142.186
internal_count=284149 197081 161549 87068 35532 39639 27234 73452 47429 32196 21239 88097 8298 14288 42647 13240 50179 13994 7443 2824 7286 3504 4644 1659 31531 37918 9644 11403 17908 3782 6780 5519 12355 5488 26190 5474 7625 31535 5169 2456 20322 30805 5553 4942 2303 2639 8707 7201 1955 1826 1510 13953 11444 8137 1957 574 2557 187 1739 3012 1915 1243
is_linear=0
shrinkage=0.05


Tree=8
num_leaves=63
num_cat=0
split_feature=13 14 14 5 13 12 5 14 8 12 8 14 5 12 9 13 9 14 13 9 13 0 9 11 5 8 5 12 8 10 8 12 9 13 5 9 8 1 12 10 14 5 2 12 8 14 5 14 13 0 9 0 12 9 9 3 12 0 5 1 8 5
split_gain=1892.18 404.725 334.025 124.139 81.4919 80.0868 71.5648 67.999 58.8714 46.9572 43.7702 40.29 40.1581 30.7344 30.6816 30.0498 34.0475 27.7949 27.572 26.8058 23.1477 20.297 18.9532 18.3174 19.0175 17.7626 17.5057 17.1488 16.146 15.96 17.2203 15.8479 22.1698 15.6105 15.2835 17.3471 15.1051 20.4219 19.4973 17.4227 14.927 14.7555 17.1923 14.7576 14.7185 14.5877 19.8028 13.7529 13.7271 22.5543 17.1499 13.4349 13.2464 13.2406 12.7733 13.0435 12.3956 14.1577 13.3089 11.649 21.6191 21.5303
threshold=0.089087301587301507 0.15095126441846193 0.062204157398665354 447.00000000000006 0.18715659340659344 0.16441441441441437 451.00000000000006 0.077998357963875206 39.31666666666667 0.22653958944281524 38.841666666666676 0.037054640191522305 483.00000000000006 0.3550420168067227 35.490000000000016 0.15026881720430108 35.790000000000013 0.096162029459901766 0.041885964912280658 34.870833333333344 0.2512626262626263 1250.0000000000002 33.810000000000009 0.13961038961038957 445.00000000000006 37.783333333333339 427.00000000000006 1.0000000180025095e-35 39.233333333333341 0.42261904761904762 34.083333333333343 0.92857142857142871 36.410000000000011 0.053667434715821756 461.00000000000006 38.363333333333337 35.916666666666679 1.0000000180025095e-35 0.57738095238095244 0.52272727272727282 0.048080841326562561 511.00000000000006 1.0000000180025095e-35 0.057983193277310906 40.31666666666667 0.082763299490010725 523.00000000000011 0.12329611675084032 0.13021739130434781 1950.0000000000002 35.610000000000014 2855.0000000000005 0.047065337763012159 36.210000000000015 39.763333333333343 2.5000000000000004 0.28285714285714292 3125.0000000000005 445.00000000000006 1.0000000180025095e-35 36.166666666666671 465.00000000000006
decision_type=10 8 10 2 10 10 2 10 10 10 10 10 2 10 8 10 8 10 8 8 10 8 8 10 2 10 2 8 10 10 10 10 10 10 2 10 8 10 8 8 8 2 2 8 10 10 2 10 10 10 10 10 10 10 10 8 10 8 2 10 10 2
left_child=2 7 3 11 19 10 14 13 9 17 18 -1 15 22 -4 16 29 33 21 56 28 -5 -2 31 -25 -7 -18 51 -6 -9 -31 -15 -33 -8 -21 -36 38 -38 48 -40 -23 47 43 -43 59 -11 -47 -39 -14 -50 52 -20 -51 -13 55 -28 57 -3 -58 60 -24 -61
right_child=1 4 6 5 20 25 8 12 -10 45 -12 53 36 23 -16 -17 26 -19 27 34 -22 40 44 24 -26 -27 54 -29 -30 30 -32 32 -34 -35 35 -37 37 41 39 -41 -42 42 -44 -45 -46 46 -48 -49 49 50 -52 -53 -54 -55 -56 -57 58 -59 -60 61 -62 -63
leaf_value=-0.03531852210692208 0.029804827835175976 0.039940308728088035 0.0020923640592122525 -0.010704384529006468 0.043988475341903623 0.0017266493917364465 -0.0057008964922173385 0.015970635854353068 -0.020441127736356684 0.010697398380997647 -0.027073856802478403 -0.01509422814616556 0.020930759219753549 0.00047848789336647535 -0.017417837528636178 0.02596918192885227 -0.021691778002742274 0.011379610106034695 -0.0060009914406249417 0.014554488399940037 0.057584121936423982 -0.02303040262843567 0.0023906670505613572 -0.041869500884971406 0.064214208104169695 -0.012489004431195877 0.0050697816386038068 -0.014782435986917062 -0.0062227170575251097 0.099605232635919583 0.03068472586529529 0.080943243860823105 -0.021177391856266686 0.0035045254777311199 0.033055933177516504 0.0077615961521008041 0.0057484993299063572 0.014334622817035615 0.10983861626389124 0.042596324891871033 -0.011376836162677671 0.052619012853225136 0.05721571645428291 0.01213548025143381 -0.033177510198809518 0.023442439283409784 0.074573681102839975 0.036404343021938929 0.023007166869891908 0.11165651415655671 -0.0088960904493347766 0.023716371487123716 0.056120696582876106 -0.027510455948433873 -0.030556636742736117 0.038702720826253707 0.01048985443431154 -0.018451973046556405 0.068172938523806334 -0.0062161952165596078 -0.018541177331954862 0.012710664152475843
leaf_weight=1066.5910434238613 61.030848395079374 148.90899246558547 277.53978085517883 678.65281717479229 589.29664219915867 810.24288798123598 859.51990041136742 480.72796395793557 243.04286310076714 255.73742828145623 883.0370243228972 471.44379496201873 212.60637082159519 61.528507824987173 731.09154468402267 344.29559473693371 65.066484156996012 631.26027135550976 762.6344255618751 241.21486843749881 461.98248369991779 1480.2088188789785 529.69726603105664 4.5806787945330134 41.045375894755125 301.20724150910974 731.62809357792139 828.60943046212196 16.254994381219149 10.873217862099407 56.400645677000284 16.456108745187525 7.6754599735140792 991.49666029214859 498.29477509483695 79.156491294503212 175.66819425672293 287.01834585145116 14.14129666239023 31.974139016121626 340.12244915217161 32.816619373857975 67.643192313611507 73.030746571719646 30.071188289672136 225.09005367010832 20.736768573522568 94.361023016273975 70.621820233762264 17.249804902821779 6.6092960350215426 39.874232735484838 31.268878512084484 399.65794550254941 23.975508064031601 29.97476851195097 11.92986975610256 10.97996451333165 70.925277795642614 219.72112312912941 160.60277125611901 472.96731968969107
leaf_count=19401 849 1700 4122 11658 5871 12261 13528 6245 4026 3647 15891 7926 2694 792 11825 4103 960 8996 12271 2891 4019 25602 7586 58 516 4816 10003 13877 180 127 675 202 99 14950 5699 965 2378 3763 176 367 5626 418 859 934 516 2926 260 1158 831 206 80 636 360 7084 376 419 126 127 718 3322 2541 6911
internal_value=-0.000203191 0.0214101 -0.0117896 -0.0177622 0.0393491 -0.0142704 -0.000419346 0.0128517 0.00321311 0.00514212 -0.0169626 -0.0287952 0.0174776 0.00461269 -0.0120447 0.01273 0.0094658 0.00232 -0.014799 0.0295216 0.0491119 -0.018102 0.00254342 0.0277889 0.0533862 -0.00212213 0.00319653 -0.00973473 0.0426316 0.0191859 0.0420296 0.01405 0.0483023 -0.00076739 0.0251748 0.0295992 0.0248927 0.0206469 0.0329397 0.0635174 -0.0208565 0.0253528 0.0374761 0.0247719 0.00136042 0.0190958 0.0278045 0.0198163 0.0287399 0.041876 0.065872 -0.00451542 0.0761572 -0.020799 0.0052668 0.00640496 0.0441444 0.0358901 0.0599504 0.00211736 -0.002474 0.00669981
internal_weight=18890.1 6592.27 12297.8 8062.28 2128.94 6124.59 4235.52 4463.33 3226.88 2983.84 5013.14 1937.69 2857.95 1605.38 1008.63 1742.94 1398.65 2482.28 4130.1 1061.41 1067.53 2498.98 1474.09 131.286 45.6261 1111.45 850.645 1631.12 605.552 548.002 67.2739 85.6601 24.1316 1851.02 818.666 577.451 1115.01 730.538 384.472 46.1154 1820.33 554.87 173.491 105.847 1413.06 501.564 245.827 381.379 338.356 125.75 55.128 802.509 48.5187 871.102 785.578 761.603 242.744 159.889 82.8551 1382.99 690.3 692.688
internal_count=284149 82820 201329 137049 22296 102638 64280 60524 48333 44307 85561 34411 37132 23392 15947 22908 18805 37474 69670 12226 10070 42886 21725 1667 574 17077 11758 26784 6051 7047 802 1093 301 28478 9555 6664 14224 9510 4714 543 31228 7132 2211 1352 20876 6833 3186 4921 4171 1477 646 12907 566 15010 10798 10422 2671 1827 844 20360 10127 10233
is_linear=0
shrinkage=0.05


Tree=9
num_leaves=63
num_cat=0
split_feature=7 7 7 7 12 5 7 4 5 5 5 9 12 1 9 0 11 9 8 5 12 4 12 11 5 7 10 5 8 12 8 7 9 8 7 12 7 7 5 0 8 9 11 12 4 12 0 5 8 12 0 7 5 12 8 8 9 9 8 5 8 8
split_gain=2823.77 667.552 311.587 86.9124 79.2738 71.0604 64.206 40.6041 40.0007 33.9013 32.6888 30.282 27.7731 32.3148 28.1885 26.3683 25.7925 25.3693 23.9069 21.1168 20.9117 27.2927 22.3427 20.7531 19.6814 19.6716 24.8064 26.0934 19.1612 18.678 18.5938 18.0809 17.6533 17.1985 17.1938 17.102 16.8858 16.7682 16.0274 15.7942 16.4821 15.815 15.7856 15.7615 15.5444 14.7874 14.1667 13.3921 17.3586 13.1773 12.535 13.0937 12.3667 12.3208 13.4757 12.2423 12.1264 11.9407 11.7964 11.7607 11.6544 12.9776
threshold=5.9000000000000012 8.3666666666666689 3.9000000000000004 7.366666666666668 1.0000000180025095e-35 451.00000000000006 10.100000000000001 58.250000000000007 445.00000000000006 453.00000000000006 435.00000000000006 37.855000000000011 0.022474747474747453 1.0000000180025095e-35 35.745000000000012 2760.0000000000005 0.40833333333333338 40.010000000000012 37.441666666666677 409.00000000000006 1.0000000180025095e-35 53.500000000000007 0.094494047619047616 0.18898809523809523 461.00000000000006 2.4500000000000006 0.25543478260869573 505.00000000000006 35.416666666666679 0.40588235294117653 34.51666666666668 2.4500000000000006 22.690000000000001 40.01666666666668 2.7750000000000004 0.080540540540540509 6.1000000000000005 2.1000000000000005 445.00000000000006 1075.0000000000002 33.683333333333344 18.110000000000003 0.36931818181818182 0.18019480519480516 56.750000000000007 0.36038961038961043 2250.0000000000005 491.00000000000006 36.941666666666677 0.22653958944281524 1075.0000000000002 4.9000000000000012 491.00000000000006 0.73214285714285732 36.08333333333335 34.916666666666679 13.655000000000003 33.810000000000009 33.683333333333344 469.00000000000006 20.783333333333339 21.816666666666666
decision_type=8 10 10 10 8 2 10 2 2 2 2 10 10 10 10 10 10 10 10 2 10 2 10 10 2 10 8 2 10 8 10 10 10 10 10 8 10 10 2 10 8 10 10 10 2 10 10 2 10 10 10 10 2 10 10 10 10 10 10 2 10 10
left_child=2 3 4 5 9 19 7 38 29 31 35 25 13 18 -15 24 55 34 -12 -2 21 36 -22 60 -5 26 42 30 -8 -6 -28 37 -9 44 -11 46 -7 -1 -3 -23 41 -41 -10 -32 47 -26 50 48 -16 -18 -4 -52 -13 -45 -55 56 -14 -29 -31 -42 -17 -62
right_child=1 6 10 15 8 20 28 32 11 17 12 52 16 14 33 23 49 -19 -20 -21 22 39 -24 -25 45 -27 27 57 -30 58 43 -33 -34 -35 -36 -37 -38 -39 -40 40 59 -43 -44 53 -46 -47 -48 -49 -50 -51 51 -53 -54 54 -56 -57 -58 -59 -60 -61 61 -63
leaf_value=0.041820916721805032 -0.034106634898773955 -0.036216435594150671 0.07017681446792555 -0.025647896625854552 0.020837424443439674 -0.022483087123317539 -0.026164083652145422 -0.031138567011301695 0.050721798143005842 0.059199633870014007 0.014720238185869769 0.0047966501311899412 -0.0083114093816477035 0.045320978780958754 0.041222852514345175 -0.02009926688716265 0.010764742231614213 -0.022347484125341377 -0.014845961780895292 -0.011619663831179992 -0.019439957339266692 0.036087317879286283 -0.0022170943560699159 0.089624982929186692 -0.014928373352565003 0.028925650678413541 0.044785461504375061 0.11600384363144811 -0.040548365215161586 0.062277871411696689 -0.025410086173706409 0.023219590332069127 0.022298069221480088 -0.0085374978800294363 0.044576323778964345 -0.014129661354132128 0.0034018071864270194 0.11167154739580692 -0.025318271169395841 -0.0041441232297359399 -0.0026272927190308499 0.04879511953510518 0.09630928412882804 0.032693011236831382 0.0062127246002238621 0.025944673808537967 0.070005044141698267 0.037735878432055149 0.017829205295511432 0.031763388506930036 0.017016765831352886 -0.0077811898999882697 0.026007900200822078 0.025475017814687962 -0.012672555700226507 0.006743334586875988 0.019129625358383851 0.051778807478997817 -0.010422362484778167 0.0049794508128004665 0.11494214422563383 0.012768322396403527
leaf_weight=84.46657495200634 114.09621684625745 430.38145950809121 7.1349758282303801 572.17231138423085 155.27601617574692 171.18954035267234 269.61884052306414 20.663628585636616 127.94911476969719 334.25216753780842 660.02108561992645 141.98403465002775 44.541233528405428 151.83458720520139 97.716141238808632 26.986394796520472 117.83730007708073 12.050427824258803 76.024235669523478 1259.5996039584279 243.94302562624216 37.138898741453886 828.62774915248156 7.9156266003847113 983.32878564298153 1130.0474785193801 125.80067224055529 7.9717048704624167 1773.0976543240249 5.7956171929836264 16.608807615935802 242.17037773132324 59.942309439182281 43.69462002068758 526.74222926050425 142.12678848579526 99.140435181558132 9.6497282758355123 1624.9333192184567 22.201948430389166 738.54466444253922 37.755025617778301 22.801445908844471 168.86374932527542 112.67456390708685 22.462667718529701 8.746406037360428 188.68089741095901 432.92447141185403 208.89365842565894 95.54293417558074 119.68805254623294 134.43712465465069 57.545990750193596 38.411623559892178 1438.7489514313638 392.00280058011413 97.083246640861034 100.25670780241489 1623.6214450187981 3.4615216739475754 26.275556456297636
leaf_count=766 1946 8209 101 10046 1907 2845 5245 360 1354 2814 8592 1758 600 1887 1244 430 1586 126 1047 20547 3865 569 12706 121 16593 12911 1240 72 35526 60 186 2597 1003 594 5256 2004 1626 87 29792 335 11322 543 230 1822 1418 347 121 2365 5576 2682 1272 1712 1574 623 432 19495 5131 953 1197 24297 56 428
internal_value=-0.00020406 -0.0165734 0.0226427 -0.00692846 0.0336513 -0.00374695 -0.0323096 -0.0262386 0.0282535 0.0440476 0.0136587 0.0305822 0.0149902 0.0196698 0.0254024 -0.0169495 0.0112393 0.0492549 0.011658 -0.0134934 -0.00022405 0.00209901 -0.00614033 0.01429 -0.0182332 0.0329595 0.0398218 0.0345379 -0.0386536 0.00978795 0.0287687 0.0305031 0.00851583 0.0219382 0.0502654 -0.000474517 -0.0129739 0.0491467 -0.0276044 0.00375836 0.00325912 0.0291343 0.0577095 0.021578 0.0235456 -0.0140081 0.00790382 0.0262524 0.0221535 0.024211 0.00540832 0.00320641 0.0151365 0.0245523 0.0101553 0.00897539 0.0163171 0.0568055 -0.00634736 0.00259903 0.00355001 0.0251747
internal_weight=18876.1 10997.1 7879 6818.46 3540.16 5175.86 4178.64 2135.92 2330.83 1209.33 4338.83 2069.5 3965.59 1763.57 1027.53 1642.6 2202.02 873.045 736.045 1373.7 3802.16 2729.59 1072.57 64.6391 1577.96 1793.08 663.036 512.286 2042.72 261.328 407.231 336.287 80.6059 875.691 860.994 373.239 270.33 94.1163 2055.31 2459.26 2422.12 59.957 150.751 281.43 831.996 1005.79 231.112 719.322 530.641 326.731 222.366 215.231 276.421 264.821 95.9576 1875.29 436.544 105.055 106.052 2362.17 56.7235 29.7371
internal_count=284149 188757 95392 108622 37965 80601 80135 39364 26319 11646 57427 23155 52217 22723 13084 28021 29494 8196 9639 22493 58108 41537 16571 1035 26986 19823 6912 5328 40771 3164 4303 3450 1363 11197 8070 5210 4471 853 38001 37066 36497 878 1584 3063 10603 16940 3206 9185 6820 4268 3085 2984 3332 2877 1055 25226 5731 1025 1257 35619 914 484
is_linear=0
shrinkage=0.05


Tree=10
num_leaves=63
num_cat=0
split_feature=7 13 7 13 7 7 14 14 14 13 7 12 7 7 7 11 13 1 14 14 8 14 4 12 9 1 9 1 7 7 7 12 13 7 14 4 13 1 9 12 2 14 12 1 14 4 12 14 4 10 13 11 4 14 14 10 13 13 11 9 7 9
split_gain=2560.43 628.876 325.729 295.864 188.844 146.19 83.5011 63.9437 58.9707 55.3315 40.1592 38.8115 38.1089 34.4139 31.4516 29.8654 26.3342 25.5336 21.9758 21.6763 20.4792 20.3579 20.2178 19.6183 19.1543 21.1244 49.1153 18.7145 17.908 17.1481 20.2372 16.5895 16.492 16.0543 15.092 14.9648 14.634 14.6141 14.3674 14.166 14.1344 13.8579 12.7868 20.6149 12.725 12.684 12.5826 12.5258 12.4949 12.4933 20.1664 12.4101 12.3653 12.0869 11.9431 11.8443 11.8095 11.7734 11.3952 10.9648 10.7588 18.1366
threshold=5.9000000000000012 0.099450549450549472 8.5500000000000025 0.13704850361197113 3.9000000000000004 6.1000000000000005 0.063900522549068264 0.06780113476974306 0.16218227155727152 0.20626738667975777 3.4500000000000006 0.034785238959467606 7.366666666666668 11.450000000000001 9.6333333333333346 0.2264957264957265 0.040202020202020204 1.0000000180025095e-35 0.2118435334390916 0.021188167364247903 38.416666666666679 0.15388037229674237 58.250000000000007 0.085410334346504566 39.663333333333334 1.0000000180025095e-35 36.14500000000001 1.0000000180025095e-35 7.2250000000000005 7.366666666666668 7.2250000000000005 0.025320512820512803 0.13704850361197113 5.7750000000000012 0.12063612496085936 57.250000000000007 0.15821566110397942 1.0000000180025095e-35 37.75500000000001 0.081356867071152708 1.5000000000000002 0.2118435334390916 0.072299651567944212 1.0000000180025095e-35 0.082195366850749463 52.250000000000007 0.18898809523809523 0.057049638902774959 53.500000000000007 0.36602870813397131 0.19395370088333838 0.34848484848484851 54.250000000000007 0.049647461390601104 0.095254652626001718 0.19677419354838713 0.29610733182161758 0.040202020202020204 0.29285714285714287 35.070833333333347 4.366666666666668 34.890000000000015
decision_type=8 10 10 10 10 10 10 10 10 10 10 8 8 10 10 10 8 8 8 10 10 10 2 10 10 10 10 10 10 10 8 10 10 10 10 2 10 8 10 10 2 8 10 10 10 2 10 8 2 10 10 8 2 10 8 10 10 10 10 10 10 10
left_child=3 2 6 4 11 9 12 42 14 32 21 24 27 16 35 19 -4 48 31 -13 23 37 46 33 25 26 -1 -2 -8 30 56 59 -3 -19 -22 54 -23 -5 -27 -17 52 -34 43 -6 47 -38 -18 51 -9 -33 -51 -37 -20 -41 -7 -44 -10 -21 -25 60 61 -12
right_child=1 5 13 10 7 8 28 17 29 -11 18 15 -14 -15 -16 39 22 20 40 57 34 36 -24 58 -26 38 -28 -29 -30 -31 -32 49 41 -35 -36 44 45 -39 -40 53 -42 -43 55 -45 -46 -47 -48 -49 -50 50 -52 -53 -54 -55 -56 -57 -58 -59 -60 -61 -62 -63
leaf_value=0.035624013465635283 -0.019818962630867163 0.010439787464460148 -0.037067718384695185 0.026243596707637363 -0.0025806412003502731 -0.011028972582497229 -0.002762022250431317 0.026346643550705259 0.021305087196055755 0.049313854029053694 0.056362288929086138 -0.0058850854733592667 -0.023554823554088646 -0.042402722781105739 -0.025029134318711524 -0.016695240336168399 -0.029118646446876114 0.037065394270087045 0.067083420551312473 0.0065530672837075107 0.0018584745134157443 0.028768100316502645 0.0033196794975694499 0.011390818562578914 -0.011690880169684139 0.053973167760533618 -0.0080842219973108007 -0.0078109779375590497 -0.013761723771052503 0.0051342240888268761 0.12635065057020689 0.016018284687443117 0.021896608343929022 -0.0090316031356187168 0.034527487761762975 -0.021160196855790084 0.097483928001964482 0.048954472367177662 0.035016045202599787 0.018084557329790456 0.010704210805226891 0.055650475227202324 -0.0073118229784064522 0.01203760421524506 0.0019770485310955472 0.05216652794180765 -0.0087725789513476062 0.090680325417496932 0.0067721784255316431 0.022918113641071595 0.077488996879082311 0.087676247809673119 0.040688663691543031 0.037205472117840317 0.00076917941886875971 0.0043444332830594691 0.074600659456193527 0.021429486039900972 0.032789891270317964 0.030974559500955009 0.034854577662903306 0.15675238752375897
leaf_weight=389.25617010146379 550.38546104729176 419.90081662684679 1069.0850792117417 187.66384024173021 415.80864870548248 472.60517565906048 1278.0409418381751 92.018504854291677 125.36206918954849 161.17787630110979 22.046436011791233 94.687172457575798 2058.79866399616 1018.5280863791704 221.39304671064019 14.537688486278055 1082.3194500096142 311.76825467869639 63.500533357262611 159.01201946288347 182.39553372189403 68.406427882611752 54.75916239246726 241.56159435585141 21.620639249682426 194.17948447912931 76.728226952254772 796.12439831346273 521.72095220535994 146.14463871717453 5.137435369193553 340.65450356155634 275.13514274731278 19.885651886463165 43.873773910105228 7.839063987135888 16.216935984790325 116.02027713507414 213.38090164959431 107.04722302407026 28.663846954703331 34.443233460187912 514.33069312572479 572.48697092756629 35.430286448448896 542.44665126502514 82.614100944250822 10.251038677990435 728.60998629406095 66.008552491664886 22.967042990028858 3.7855285517871389 158.53517178446054 385.58260423690081 391.30438208580017 377.51862251758575 11.368983775377272 849.9245255663991 84.465690892189741 255.94103439897299 32.426540702581406 5.7630020007491103
leaf_count=3868 9399 5785 21743 1813 6034 7477 19856 1220 1492 1459 218 1250 37443 21528 4087 180 21153 3771 593 2030 2398 623 978 3153 231 1816 842 13404 8918 2026 62 3847 3294 263 511 117 129 1112 2079 1370 267 371 7563 7919 492 4322 1543 144 9477 726 218 56 1492 4399 5737 5481 117 9982 1082 2688 350 57
internal_value=-0.000324682 -0.0161773 -0.0224682 0.0210943 0.0156897 0.00688969 -0.0146696 0.00832606 -0.00300788 0.0227919 0.0381704 0.0262204 -0.0192741 -0.0347393 -0.00810759 0.0215708 -0.0313251 0.0153396 0.0311724 0.016943 0.0212399 0.0456531 -0.0262849 0.0257071 0.0345781 0.0357302 0.0284162 -0.0127241 -0.00595402 0.0172022 0.0295863 0.0268432 0.016919 0.0342845 0.00822756 -0.00403318 0.0508223 0.0349498 0.0440713 0.031626 0.0440156 0.0256849 0.00196431 0.00588253 0.0206696 0.0535082 -0.0276809 0.0505702 0.00897613 0.0204101 0.0371317 0.0143013 0.0482867 0.0330652 -0.00567979 -0.00237221 0.0258244 0.0190907 0.0169585 0.0355597 0.0548754 0.0778326
internal_weight=18851.6 10833.7 8512.38 8017.94 6090.68 2321.28 5205.07 3584.72 1430.62 890.657 1927.26 2505.96 3405.31 3307.31 1142.61 1610.79 2288.78 1704.58 996.507 1103.62 883.95 930.754 1219.69 657.681 895.165 873.545 465.984 1346.51 1799.76 288.013 141.868 745.807 729.479 331.654 226.269 921.215 627.07 303.684 407.56 507.168 250.7 309.578 1880.14 988.296 57.3059 558.664 1164.93 21.8756 820.628 429.63 88.9756 11.6246 222.036 492.63 863.91 891.849 136.731 1008.94 326.027 316.177 60.236 27.8094
internal_count=284055 188681 155965 95374 76919 32716 89020 48872 21807 10909 18455 28047 60246 66945 18110 19211 45417 21875 10456 13262 11178 7999 23674 8269 8836 8605 4710 22803 28774 3697 1671 8104 9450 4034 2909 14023 5074 2925 3895 5949 2352 3665 26997 13953 809 4451 22696 317 10697 4791 944 173 2085 5769 13214 13044 1609 12012 4235 3313 625 275
is_linear=0
shrinkage=0.05


Tree=11
num_leaves=63
num_cat=0
split_feature=6 7 14 14 13 13 7 13 6 14 6 7 13 10 14 11 10 4 6 14 0 7 1 7 13 4 7 10 7 13 2 1 8 14 13 14 1 14 10 8 13 13 10 11 14 10 4 8 8 13 11 4 6 13 13 13 8 6 1 8 8 13
split_gain=2320.02 684.504 327.118 223.37 128.096 95.2787 76.8012 70.1107 64.9796 45.435 45.4132 43.348 36.4625 29.8253 29.0466 27.4449 25.681 25.4012 24.2523 22.955 20.7693 19.4479 17.6327 17.1908 18.5275 15.6009 15.5005 15.476 14.6314 16.6094 14.5829 13.7039 19.3608 15.5921 13.3133 13.2455 19.7989 12.4125 12.3715 14.1936 12.1053 12.0712 12.7731 13.2349 12.0315 12.9505 12.2381 11.6601 11.5049 11.2518 12.747 11.0896 10.602 10.5846 11.669 10.4764 12.8379 10.3841 10.1738 12.2025 11.1453 11.0703
threshold=5.416666666666667 7.366666666666668 0.08027845974932156 0.076905883566589867 0.051151229722658252 0.15026881720430108 3.4500000000000006 0.13021739130434781 3.8333333333333335 0.047631938536107407 9.8333333333333339 9.6333333333333346 0.15170694284618338 0.14550264550264549 0.13620667071529788 0.36931818181818182 0.040833333333333312 55.250000000000007 6.8333333333333348 0.14293062904174011 1175.0000000000002 2.3666666666666667 1.0000000180025095e-35 6.366666666666668 0.051151229722658252 52.250000000000007 6.1000000000000005 0.5634920634920636 4.366666666666668 0.17902592301649647 1.5000000000000002 1.0000000180025095e-35 36.08333333333335 0.073567783538429118 0.29610733182161758 0.063900522549068264 1.5000000000000002 0.029192448775427003 0.084523809523809515 34.783333333333346 0.14213564213564214 0.28292357537640561 0.25543478260869573 0.34848484848484851 0.032346908988896063 0.042572463768115909 55.750000000000007 38.483333333333341 20.783333333333339 0.070087719298245615 0.20526315789473684 58.250000000000007 4.5833333333333348 0.037855266300453758 0.067041198501872609 0.12435567010309277 37.883333333333347 4.5833333333333348 1.0000000180025095e-35 35.483333333333341 36.358333333333341 0.060120481927710807
decision_type=8 10 10 10 8 10 10 10 10 8 10 10 10 8 10 8 8 2 8 10 10 10 10 10 10 2 10 10 10 10 2 10 10 8 10 8 10 8 8 10 10 10 8 8 8 8 2 10 10 10 8 2 10 10 8 10 10 10 10 10 10 10
left_child=3 2 9 8 11 19 12 10 13 18 35 -3 38 21 16 -7 55 34 22 26 -18 37 -2 24 -11 -14 -4 52 29 44 51 32 -23 -33 -17 36 -6 53 -5 -40 -26 -27 43 -43 -10 46 -46 -39 -38 50 -35 -9 -16 -1 -55 -8 -57 -29 59 -41 -60 -61
right_child=1 4 5 6 7 15 14 30 28 23 -12 -13 25 -15 27 17 20 -19 -20 -21 -22 31 -24 -25 40 41 -28 57 -30 -31 -32 33 -34 49 -36 -37 48 47 39 58 -42 42 -44 -45 45 -47 -48 -49 -50 -51 -52 -53 -54 54 -56 56 -58 -59 60 61 -62 -63
leaf_value=-0.01758794261491935 -0.01932744762593119 -0.028243445809804198 0.0067497957360537668 0.038098225938723834 -0.02441196411318583 0.012978449076194852 0.022289804365978414 -0.0038011405673167606 -0.0024729417214992082 -0.010354675313616918 -0.030483429392864164 -0.040152561187491768 0.085546980245709503 0.012642974846278424 0.033142226235226932 0.039303943056314482 0.053840453468342243 0.016014600839074532 -0.02122808203830702 0.018782350815590734 0.010190671896023344 0.019997887290093212 -0.0019578586671808967 -0.01374116903742429 0.00048257980711146676 0.041064049950171697 -0.0049479318927269341 0.040720815587022674 0.0019754039497753323 0.11108716699160082 0.032038171894584591 0.025906189779513457 -0.015228427985547669 -0.00086997670465574376 0.071163789580207026 -0.010897350680550559 -0.018705575271611336 0.060074169654533549 0.038135474523546931 0.02468312696654093 0.030801450073802986 0.098147312091893174 0.045020103383601337 0.044801134041791951 0.014992512696150914 0.0072308224714811246 0.041973731214531657 0.0023076345140761296 0.042238122165361942 0.097487387132052961 0.1015982234932475 0.03141907733118688 0.021077818735005124 0.088263615200614667 -0.0054614197334901483 0.046072528634732587 0.011071069470678692 0.095453524440785975 0.052609152118372797 0.040465938695175598 0.024338610688809645 -0.0060880343632550571
leaf_weight=12.941010855138304 247.56964102759957 1560.5165080092847 898.83736721798778 394.50662302225828 454.43586126342416 191.2804883942008 511.88251614570618 249.88260624557734 122.66851281374693 522.85093138366938 888.94595623016357 1509.4277210198343 23.749228812754154 911.18465442955494 519.34482891112566 280.78145323693752 28.359661292284727 119.72939839959145 1281.3231181427836 282.51793466135859 683.44903164729476 234.73789130151272 358.16848716139793 540.46263644471765 727.80391698330641 595.17195952683687 412.8773359246552 23.845324985682964 1185.8696596324444 4.1078082770109168 38.864439595490694 376.01637411117554 46.534279763698578 9.2185751423239708 37.804522097110748 674.62112238630652 13.203326005488636 79.840617135167122 200.01387701183558 124.66216266155243 34.404507994651794 31.238504990935326 76.509120732545853 19.640479065477848 110.75444027781487 220.23189014196396 68.729172468185425 10.019628830254076 18.219775717705488 13.585508301854132 4.3555270582437524 24.437939304858446 286.40781693160534 7.1714024022221539 5.9176670238375673 109.4120480120182 35.068417213857174 14.311998985707758 42.098319545388222 14.989799179136751 216.9688553288579 82.756344452500343
leaf_count=128 4082 30379 12679 3667 8466 2205 6253 3863 1699 8612 17998 32778 186 11045 5016 2911 344 1262 23345 3571 8297 2725 5714 9018 11223 4913 6378 215 17194 47 589 4300 558 104 316 11503 229 780 1990 1281 441 209 531 130 1481 2928 890 95 316 146 49 350 3093 76 57 1204 386 132 426 167 2237 848
internal_value=-0.000322793 -0.0145391 -0.00280161 0.021347 -0.0273641 0.0123621 0.0293192 -0.0186061 0.0119513 -0.0118861 -0.0219734 -0.0341017 0.0369253 0.0188419 0.0230497 0.0288314 0.0185379 0.0357337 -0.0173278 0.00585354 0.0119441 0.0258906 -0.00906721 -0.00625753 -0.00310539 0.0454357 0.00306389 0.0303554 0.00506043 0.0119979 0.00341252 0.0226625 0.0141489 0.0285846 0.0431214 -0.0154482 -0.0217532 0.0448769 0.0310141 0.0269008 0.00186153 0.0440988 0.0581947 0.0777808 0.0111881 0.0153926 0.0253698 0.0536984 0.0164941 0.0652515 0.0321459 -0.000635009 0.0288632 0.0141435 0.0457906 0.0256783 0.0376251 0.0615764 0.0222164 0.0143173 0.0289704 0.00103418
internal_weight=18827.2 11369 5936.41 7458.27 5432.56 2223.83 4034.39 2362.61 3423.88 3712.58 2049.43 3069.94 1822.31 1711.52 2212.08 629.596 1368.17 438.315 1887.06 1594.23 711.809 800.338 605.738 1825.52 1285.06 746.309 1311.71 843.91 1712.36 526.492 313.185 684.448 281.272 403.176 318.586 1160.48 485.859 115.89 1076 681.489 762.208 722.56 127.388 50.879 522.384 399.716 179.484 89.8602 31.4231 27.1596 13.5741 274.321 805.753 26.0301 13.0891 656.363 144.48 38.1573 481.475 222.408 259.067 97.7461
internal_count=284055 198228 91757 85827 106471 29322 41525 43314 44302 62435 38512 63157 16585 20063 24940 6694 16484 4489 33141 22628 8641 9018 9796 29294 20276 5969 19057 8456 24239 7045 4802 7882 3283 4599 3227 20514 9011 1136 10616 6949 11664 5783 870 339 6998 5299 2371 875 545 299 153 4213 8109 261 133 7843 1590 347 4959 2296 2663 1015
is_linear=0
shrinkage=0.05


Tree=12
num_leaves=63
num_cat=0
split_feature=6 6 13 7 13 13 7 13 13 7 7 13 5 5 7 10 13 10 5 6 4 11 13 10 13 2 6 10 13 6 8 5 7 0 13 5 5 6 13 0 0 10 6 13 5 3 4 4 8 13 0 13 11 4 5 10 0 8 0 0 8 7
split_gain=2090.18 575.585 260.09 219.755 144.19 88.4761 85.0007 74.3089 58.8799 45.9168 44.2392 32.5486 30.5661 28.2381 26.4716 25.7471 25.7297 24.3557 20.8034 20.6038 21.8679 19.8102 19.1235 18.7449 18.0015 23.3776 17.9271 17.6929 16.9799 14.8904 14.8417 14.8359 14.5545 14.1861 18.3099 14.1145 13.3328 19.917 13.3038 13.084 12.9638 13.7164 12.7953 12.7571 12.5897 16.0948 12.5835 12.4927 16.6858 12.387 20.19 12.0045 11.7031 11.5013 13.7242 13.9307 15.294 11.4892 11.4444 11.3631 10.7791 11.5748
threshold=6.8333333333333348 4.416666666666667 0.080229885057471265 8.9000000000000021 0.1398924731182796 0.12141687141687142 7.4500000000000011 0.18715659340659344 0.13021739130434781 6.366666666666668 3.9000000000000004 0.051151229722658252 461.00000000000006 497.00000000000006 6.1000000000000005 0.040833333333333312 0.041885964912280658 1.0000000180025095e-35 437.00000000000006 5.416666666666667 59.500000000000007 0.64583333333333337 0.28292357537640561 0.050641025641025607 0.035929432013769351 2.5000000000000004 10.41666666666667 0.36602870813397131 0.085236118318629969 1.1666666666666667 34.116666666666674 455.00000000000006 2.4500000000000006 1250.0000000000002 0.13704850361197113 433.00000000000006 463.00000000000006 3.8333333333333335 0.050252525252525257 1075.0000000000002 1350.0000000000002 0.13423423423423422 2.166666666666667 0.081799933087989204 477.00000000000006 1.5000000000000002 53.500000000000007 53.500000000000007 38.058333333333344 0.080229885057471265 1350.0000000000002 0.30690737833594978 0.40833333333333338 53.500000000000007 461.00000000000006 0.58571428571428574 1750.0000000000002 36.441666666666677 2675.0000000000005 2450.0000000000005 34.216666666666683 3.5500000000000003
decision_type=10 8 10 10 8 8 8 10 10 10 10 8 2 2 10 8 8 8 2 10 2 10 8 8 10 2 10 10 10 10 10 2 10 8 10 2 2 10 10 8 10 10 10 10 2 10 2 2 10 10 10 10 10 2 2 8 10 10 8 10 10 10
left_child=1 4 6 5 10 9 19 14 11 -2 13 31 38 17 18 36 -8 32 -4 24 35 58 23 30 -3 -26 -13 -7 29 -19 -6 -5 -1 -20 -35 -21 37 49 -11 46 41 -17 59 -41 -32 -46 -14 48 -31 -12 -51 -24 -53 -44 -55 -56 60 -23 -16 -25 -57 -62
right_child=3 2 7 8 22 27 16 -9 -10 12 15 26 39 -15 21 40 -18 28 33 20 -22 57 51 42 25 -27 -28 -29 -30 47 44 -33 -34 34 -36 -37 -38 -39 -40 43 -42 -43 53 -45 45 -47 -48 -49 -50 50 -52 52 -54 54 55 56 -58 -59 -60 -61 61 -63
leaf_value=0.038666724275877813 -0.0021914615211532157 -0.0047041688771998144 -0.0022860829432990813 -0.043665057374261518 0.068896745410055554 0.0045713752937465825 -0.021397039797286282 0.031862480859880825 -0.00065824261294764605 -0.032960491221597991 0.014388930185484095 -0.02021310866437636 0.063975541869751865 0.032745704446852014 -0.005797908176904812 0.033018385742367845 -0.0085055529696340722 -0.011128777536052179 0.024493405530052942 -0.021710121260492155 0.040927789049295338 0.018290189772432294 0.066331385538726709 0.035743505085996781 0.0073909348521866373 0.052952156362160156 -0.033118852281792469 0.042676693104926604 0.023056934951854402 0.037859845265302866 0.03157597947247022 -0.034543484080802864 0.022836931058299668 0.0085442827609164326 0.021360786854841475 -0.0037843081708836511 0.023599879514802944 -0.00073303268275320705 -0.020922255896427305 -0.018586994683152513 0.0018387763552997921 0.00615108105853545 0.052181285750924615 -0.0072060376234307291 0.052136423315893632 0.0038292019721832618 -0.0022127736834715965 0.0098484421487204446 -0.017349928261077126 0.12084677100151153 0.030507243596175179 0.047892637362693835 0.0060874608500953208 0.007768798672138269 0.018759964144524223 0.11754736242130748 0.023991145587433899 0.12333402517912434 0.024414382368440062 0.083971545056105018 0.066912031146664872 0.024383362745138092
leaf_weight=194.6055336818099 434.60284985229373 338.82416018843651 208.41821953654289 729.73846401274204 46.984109975397587 368.01424299925566 830.13985455408692 470.48139544576406 138.06576268747449 471.09684709459543 75.575100943446159 503.30062030628324 8.8647794984281045 561.98102894425392 368.54044771939516 77.889107346534729 728.73296422511339 71.267832241952419 290.98712622374296 121.6152988485992 25.743535384535789 6.0896322503685933 79.402309156954288 297.77140750735998 700.10495212301612 29.28679147362709 587.64246015623212 33.179143313318491 437.32229121774435 85.293592840433121 254.99150927364826 1187.777788374573 592.6146924495697 955.96699978038669 394.88290748745203 1141.9388738572598 487.17259607091546 172.2919096313417 456.42913058027625 1301.5941895470023 576.3395223133266 123.19736467674375 35.96897266805172 305.81646391749382 202.73188152164221 19.108570665121078 35.426698092371225 532.05464075505733 16.10139574855566 7.824470490217208 30.05233446508646 105.17355110496283 20.278181135654449 116.53932207077742 199.26739558577538 6.4381961524486533 83.746452875435352 4.6875050365924835 34.116962663829327 12.879054084420202 39.043441854417324 28.138845458626747
leaf_count=1763 6977 4958 2895 16433 396 5130 15252 4439 2268 9346 929 9763 159 5779 5308 988 12390 916 3675 2043 389 82 561 2487 9817 409 12480 419 4573 1011 2261 26027 6204 12762 4486 17914 5926 2327 8280 24171 7422 1595 336 5058 1697 158 638 6225 198 85 334 733 145 1118 1899 53 747 65 457 106 329 264
internal_value=-0.00031972 0.0118856 0.00194435 -0.0230894 0.0237117 -0.0143029 -0.00631649 0.0137787 -0.0326234 -0.0172397 0.0187378 -0.0340886 -0.0197732 0.0228669 0.0100167 0.0120985 -0.0153747 0.0199852 0.0125728 -0.000324335 -0.00458087 -0.00141049 0.0366886 0.0345017 0.00480842 0.00923419 -0.0271718 0.00774504 0.0153083 0.01049 0.0419193 -0.0380195 0.0267609 0.014462 0.0122958 -0.00551518 0.0185631 0.00995308 -0.0270448 -0.0156854 0.00566339 0.016594 0.0297515 -0.0164254 0.0392367 0.0480015 0.0110362 0.0129316 0.0290349 0.0262118 0.04957 0.050984 0.0411852 0.0248334 0.0227334 0.0276059 0.0387564 0.0651524 -0.0032202 0.0377854 0.0554293 0.0492362
internal_weight=18802.2 12240.6 6650.56 6561.55 5590.05 3415.02 3916.39 2734.17 3146.53 3013.83 4041.58 3008.46 2579.23 2491.24 2263.69 1550.34 1558.87 1929.26 1850.26 2357.51 1289.3 413.435 1548.46 1343.61 1068.22 729.392 1090.94 401.193 1142.04 704.717 523.816 1917.52 787.22 1641.84 1350.85 1263.55 772.916 285.744 927.526 1651.7 777.426 201.086 819.793 1607.41 476.832 221.84 44.2915 633.45 101.395 113.452 37.8768 204.854 125.452 509.143 473.174 356.634 157.367 10.7771 402.657 310.65 73.6205 67.1823
internal_count=284055 156906 97341 127149 59565 60178 63172 34169 66971 54629 46275 64703 47652 26669 29730 19606 27642 20890 23818 35530 20346 5912 13290 11851 15184 10226 22243 5549 12923 8350 4512 42460 7967 20923 17248 19957 9601 3675 17626 30026 10005 2583 7339 29229 4116 1855 797 7434 1209 1348 419 1439 878 4746 4410 3292 1393 147 5765 2593 646 593
is_linear=0
shrinkage=0.05


Tree=13
num_leaves=63
num_cat=0
split_feature=6 6 14 7 13 14 7 13 13 14 7 14 5 7 5 13 5 6 14 14 6 5 14 13 13 5 13 13 0 7 7 9 13 9 4 9 0 13 9 0 5 7 14 9 7 6 6 2 5 0 14 7 0 11 0 14 5 0 7 5 0 8
split_gain=1908.27 504.512 282.851 211.722 123.27 95.3501 59.5159 58.5741 57.0504 42.9967 39.9035 33.0017 26.4259 24.6597 24.4834 23.8831 20.2006 20.1386 18.0525 17.5967 17.2796 17.2415 15.73 15.4611 14.8002 14.7791 17.5224 14.6327 14.0595 13.9418 13.6061 13.561 13.5402 13.1908 13.1022 16.2002 12.7556 16.6612 13.5131 12.8767 16.4088 15.4954 12.7099 13.2839 12.2303 11.9835 11.5298 11.4463 13.5172 12.5769 11.8666 11.3649 11.2419 11.1117 11.0951 10.7649 12.3198 10.7111 11.7808 10.59 10.2155 10.1542
threshold=6.8333333333333348 4.416666666666667 0.079862296169890018 8.9000000000000021 0.1398924731182796 0.10411466665006812 5.9000000000000012 0.18715659340659344 0.071796759941089819 0.061406833991726806 6.366666666666668 0.048401873858436507 453.00000000000006 2.6333333333333337 469.00000000000006 0.13021739130434781 443.00000000000006 12.16666666666667 0.15095126441846193 0.16218227155727152 1.4166666666666667 447.00000000000006 0.047631938536107407 0.091372912801484213 0.060120481927710807 509.00000000000006 0.061381475667189905 0.051151229722658252 1075.0000000000002 4.5500000000000007 6.7083333333333348 39.663333333333334 0.050568980948727756 35.363333333333337 59.500000000000007 22.690000000000001 1350.0000000000002 0.071067821067821071 34.322500000000012 1650.0000000000002 469.00000000000006 3.7750000000000004 0.21751464495500331 37.055000000000007 7.5500000000000007 8.1666666666666696 3.8333333333333335 1.0000000180025095e-35 477.00000000000006 1250.0000000000002 0.06908033299339332 3.7083333333333335 1175.0000000000002 0.40833333333333338 2855.0000000000005 0.070653453890106258 523.00000000000011 1250.0000000000002 5.9000000000000012 433.00000000000006 1175.0000000000002 39.716666666666676
decision_type=10 8 10 10 8 10 8 10 10 8 10 8 2 10 2 10 2 10 8 10 10 2 8 10 10 2 10 10 8 8 10 10 8 10 2 10 10 10 10 10 2 10 10 8 8 10 10 2 2 10 8 10 8 8 8 10 2 10 10 2 8 8
left_child=1 4 6 5 9 10 24 12 17 21 -2 16 42 20 28 45 -8 22 -6 57 -11 46 -5 -13 47 52 -27 -14 30 54 -12 51 -30 -9 55 -36 37 -15 -39 40 -38 -42 -4 -44 -18 -10 -1 48 -3 -49 -51 -23 -22 -31 -29 -16 -57 59 -59 -7 -26 -53
right_child=3 2 7 8 18 19 11 33 15 13 14 23 27 36 34 -17 44 -19 -20 -21 25 31 -24 -25 60 26 -28 29 32 53 -32 -33 -34 -35 35 -37 39 38 -40 -41 41 -43 43 -45 -46 -47 -48 49 -50 50 -52 61 -54 -55 -56 56 -58 58 -60 -61 -62 -63
leaf_value=0.0067795286410314614 -0.0029669183892898961 -0.013384922667117825 -9.4651056004350123e-05 -0.03664164353193055 0.026355116925563027 -0.033769949333550618 -0.028149911267940371 0.036894417654545757 0.0060771645635868182 0.013914904573349457 0.10231366729730658 -0.0078387306809569179 0.0011227840448304327 0.014997074119737917 -0.019080255797664102 -0.00062572029843195685 -0.0065047961238700359 -0.04279758144511684 0.037720530893709053 0.016762482787682199 0.08506746908729948 0.018689451759906519 -0.026689122073761642 0.0071641723896989223 0.050827836099005264 0.10113236169572302 0.041441505500047437 0.030401683254624997 -0.031673311047117035 0.0080548322745310885 -0.0049134765521209071 -0.023414221859028823 -0.020282559314986418 0.01946155652571134 -0.023325272031908144 0.041353301070900295 -0.0012714458267916026 -0.011960804572026997 0.03882734584294404 0.019696383550825203 0.030390353959214789 0.0053608108857392629 0.088760667112917982 0.0061618162012300123 -0.017590679687961169 -0.02572707991314846 -0.014681853961485204 0.023897427187153597 0.0021288289280353041 0.0038149404654594325 -0.033321763176458102 0.0087201135809867169 0.029632951439081623 0.017552126114899157 -0.03292089788500193 -0.011448188301448926 0.023484429367180454 0.018391458485063367 -0.010772308855306216 0.018923046967897438 0.0064412600476988343 0.078687666174916515
leaf_weight=209.5006590038538 401.23541295900941 332.28894011303782 529.35111318901181 995.59056941792369 528.90807051211596 10.60518044605851 297.41308001428843 292.78032501786947 31.10339080914855 134.04912768304348 3.1144700758159152 944.16819301247597 195.30219503864646 175.25451367720962 909.20573848113418 137.98698802292347 403.49583980068564 697.9695286527276 1060.0208916962147 199.98698265850544 9.374306879937647 702.46763959527016 672.36353331431746 209.4723859578371 13.199571967124937 16.345372170209885 52.671855889260769 190.37480821460485 588.31298470124602 511.45041185989976 36.565421558916569 24.028536476194859 477.04418991878629 175.58596104383469 17.00601140409708 22.061481542885303 199.03801272809505 13.768388681113718 209.57675591111183 963.39211520552635 124.91826668381691 123.58303791284561 8.2236684709787387 12.108929857611654 656.99772034212947 520.1934221200645 89.105021826922894 69.830029189586639 242.20679315924644 174.81006663665175 24.420577924698591 604.33361159265041 444.92290563881397 784.9028183221817 7.0240209996700278 316.65063206851482 27.248189050704241 40.299126055091619 238.82143000140786 83.860762465745211 583.46958165615797 5.1515825390815726
leaf_count=2511 6518 4993 7275 22678 4999 180 5798 2587 552 1408 54 15750 2795 2027 17312 2268 6653 16376 8291 2524 87 7833 14472 2989 177 157 457 2179 11901 6512 708 300 8749 1691 308 375 2267 147 2220 10686 1267 1451 94 143 12155 10625 1296 1015 3546 2596 347 7879 4215 9914 80 5476 471 525 3759 1318 8052 67
internal_value=-0.000315923 0.0111831 0.00183989 -0.0224108 0.0221154 -0.0137695 -0.00668833 0.0142908 -0.0319458 0.0175317 -0.0175763 -0.011335 0.0109224 0.0217012 -0.0200192 -0.0192671 -0.0166193 -0.0356365 0.0339424 0.00479454 0.0300094 0.0112351 -0.0326346 -0.00510986 0.00141155 0.034119 0.0557763 0.0140215 -0.0254909 0.0157045 0.00361312 0.0136628 -0.0265799 0.0303752 -0.0153345 0.0130835 0.0186787 0.0265993 0.0356701 0.0164359 0.0094031 0.0179701 0.00138951 0.0400851 -0.0133785 -0.0239229 0.000355864 -0.00284692 -0.00683641 0.0056522 -0.000726418 0.0143474 0.0308063 0.0138099 0.0281076 -0.0162254 -0.00865981 -0.00160149 -0.00653869 0.0129252 0.00743992 0.00933252
internal_weight=18776.5 12349.3 6658.88 6427.23 5690.41 3372.02 3951.77 2707.1 3055.21 4101.48 2798.44 2511.55 2238.74 2466.89 2397.21 689.284 1357.91 2365.92 1588.93 573.573 657.364 1634.59 1667.95 1153.64 1440.23 523.314 69.0172 1689.05 1105.04 1493.75 39.6799 1335.98 1065.36 468.366 1292.17 39.0675 1809.53 398.6 223.345 1410.93 447.539 248.501 549.684 20.3326 1060.49 551.297 298.606 843.556 574.496 269.061 199.231 1311.95 454.297 1296.35 197.399 1253.1 343.899 373.586 279.121 94.4659 596.669 609.485
internal_count=284055 156906 97341 127149 59565 60178 64071 33270 66971 46275 51872 43345 28992 26389 45354 13445 24606 53526 13290 8306 6324 19886 37150 18739 20726 4916 614 21480 21412 18685 762 16079 20650 4278 23942 683 20065 4394 2367 15671 4985 2718 7512 237 18808 11177 3807 12497 8539 3958 2943 15779 4302 16426 2259 23259 5947 5782 4284 1498 8229 7946
is_linear=0
shrinkage=0.05


Tree=14
num_leaves=63
num_cat=0
split_feature=6 6 14 7 13 14 13 7 13 13 12 7 12 14 6 6 13 12 14 8 6 13 4 14 1 6 1 8 9 6 13 7 13 14 1 9 14 9 11 0 14 14 7 9 14 7 9 0 14 0 7 14 9 11 13 12 13 12 0 8 2 0
split_gain=1742.38 443.128 253.359 203.64 108.001 88.1398 56.0321 54.5287 50.7155 37.9656 43.4545 37.3854 32.0063 30.704 28.3601 25.2966 24.1951 23.1334 20.023 18.4346 17.7847 16.594 17.934 15.6224 15.4135 15.2461 14.8189 28.6205 14.8003 17.9515 14.0269 13.9514 13.2949 13.2872 12.7087 25.6848 12.4378 12.3641 15.2898 12.5922 13.7039 12.8518 12.6913 12.208 12.2074 12.1366 11.2673 11.1969 17.1855 12.5168 12.7428 10.7444 11.707 12.3276 10.7082 10.5026 12.2567 11.5611 11.0876 10.4606 10.3603 11.0704
